<?xml version="1.0"?>
<opencv_storage>
<catdetector type_id="opencv-haar-classifier">
  <size>
    24 24</size>
  <stages>
    <_>
      <trees>
        <_>
          <_>
            <feature>
              <rects>
                <_>
                  0 9 24 13 -1.</_>
                <_>
                  6 9 12 13 2.</_></rects>
              <tilted>0</tilted></feature>
            <threshold>0.1461590975522995</threshold>
            <left_val>-0.1147110983729363</left_val>
            <right_val>0.5369274020195007</right_val></_></_>
        <_>
          <_>
            <feature>
              <rects>
                <_>
                  0 1 24 23 -1.</_>
                <_>
                  6 1 12 23 2.</_></rects>
              <tilted>0</tilted></feature>
            <threshold>-0.1739906072616577</threshold>
            <left_val>0.5106598138809204</left_val>
            <right_val>-0.1382444947957993</right_val></_></_>
        <_>
          <_>
            <feature>
              <rects>
                <_>
                  0 9 4 12 -1.</_>
                <_>
                  2 9 2 12 2.</_></rects>
              <tilted>0</tilted></feature>
            <threshold>6.7228130064904690e-003</threshold>
            <left_val>-0.1378954052925110</left_val>
            <right_val>0.3153608143329620</right_val></_></_>
        <_>
          <_>
            <feature>
              <rects>
                <_>
                  20 2 4 18 -1.</_>
                <_>
                  20 2 2 18 2.</_></rects>
              <tilted>0</tilted></feature>
            <threshold>-0.0358482114970684</threshold>
            <left_val>0.4897584915161133</left_val>
            <right_val>-0.1196288987994194</right_val></_></_>
        <_>
          <_>
            <feature>
              <rects>
                <_>
                  2 3 20 20 -1.</_>
                <_>
                  12 3 10 20 2.</_></rects>
              <tilted>0</tilted></feature>
            <threshold>0.2930512130260468</threshold>
            <left_val>-0.0426076091825962</left_val>
            <right_val>0.6375465989112854</right_val></_></_>
        <_>
          <_>
            <feature>
              <rects>
                <_>
                  20 5 4 14 -1.</_>
                <_>
                  20 5 2 14 2.</_></rects>
              <tilted>0</tilted></feature>
            <threshold>0.0207083895802498</threshold>
            <left_val>-0.0835795179009438</left_val>
            <right_val>0.3584846854209900</right_val></_></_>
        <_>
          <_>
            <feature>
              <rects>
                <_>
                  0 2 4 16 -1.</_>
                <_>
                  2 2 2 16 2.</_></rects>
              <tilted>0</tilted></feature>
            <threshold>-0.0160157699137926</threshold>
            <left_val>0.4295774102210999</left_val>
            <right_val>-0.1321015059947968</right_val></_></_>
        <_>
          <_>
            <feature>
              <rects>
                <_>
                  20 2 4 9 -1.</_>
                <_>
                  20 2 2 9 2.</_></rects>
              <tilted>0</tilted></feature>
            <threshold>8.1168022006750107e-003</threshold>
            <left_val>-0.0319261103868485</left_val>
            <right_val>0.1569630056619644</right_val></_></_>
        <_>
          <_>
            <feature>
              <rects>
                <_>
                  1 2 2 10 -1.</_>
                <_>
                  2 2 1 10 2.</_></rects>
              <tilted>0</tilted></feature>
            <threshold>2.3792020510882139e-003</threshold>
            <left_val>-0.1429470032453537</left_val>
            <right_val>0.2961415946483612</right_val></_></_>
        <_>
          <_>
            <feature>
              <rects>
                <_>
                  11 15 2 8 -1.</_>
                <_>
                  11 15 1 8 2.</_></rects>
              <tilted>0</tilted></feature>
            <threshold>2.0127820316702127e-003</threshold>
            <left_val>-0.1037207022309303</left_val>
            <right_val>0.3028168976306915</right_val></_></_>
        <_>
          <_>
            <feature>
              <rects>
                <_>
                  5 0 4 5 -1.</_>
                <_>
                  5 0 2 5 2.</_></rects>
              <tilted>1</tilted></feature>
            <threshold>0.0158021897077560</threshold>
            <left_val>-0.1046940013766289</left_val>
            <right_val>0.3276256918907166</right_val></_></_>
        <_>
          <_>
            <feature>
              <rects>
                <_>
                  10 17 4 6 -1.</_>
                <_>
                  10 17 2 6 2.</_></rects>
              <tilted>0</tilted></feature>
            <threshold>-4.0814899839460850e-003</threshold>
            <left_val>0.3060069978237152</left_val>
            <right_val>-0.1157362982630730</right_val></_></_>
        <_>
          <_>
            <feature>
              <rects>
                <_>
                  2 4 20 15 -1.</_>
                <_>
                  12 4 10 15 2.</_></rects>
              <tilted>0</tilted></feature>
            <threshold>-0.2927994132041931</threshold>
            <left_val>0.6703096032142639</left_val>
            <right_val>-0.0457482188940048</right_val></_></_>
        <_>
          <_>
            <feature>
              <rects>
                <_>
                  11 19 9 3 -1.</_>
                <_>
                  14 19 3 3 3.</_></rects>
              <tilted>0</tilted></feature>
            <threshold>0.0102018499746919</threshold>
            <left_val>-0.0373067893087864</left_val>
            <right_val>0.1944642066955566</right_val></_></_>
        <_>
          <_>
            <feature>
              <rects>
                <_>
                  1 21 16 3 -1.</_>
                <_>
                  5 21 8 3 2.</_></rects>
              <tilted>0</tilted></feature>
            <threshold>0.0101179899647832</threshold>
            <left_val>-0.1197704970836639</left_val>
            <right_val>0.2459813058376312</right_val></_></_>
        <_>
          <_>
            <feature>
              <rects>
                <_>
                  22 13 2 3 -1.</_>
                <_>
                  22 14 2 1 3.</_></rects>
              <tilted>0</tilted></feature>
            <threshold>-4.8316400498151779e-003</threshold>
            <left_val>-0.5889691114425659</left_val>
            <right_val>0.0465273112058640</right_val></_></_>
        <_>
          <_>
            <feature>
              <rects>
                <_>
                  0 13 2 3 -1.</_>
                <_>
                  0 14 2 1 3.</_></rects>
              <tilted>0</tilted></feature>
            <threshold>4.9089160747826099e-003</threshold>
            <left_val>0.0411649905145168</left_val>
            <right_val>-0.6843516230583191</right_val></_></_>
        <_>
          <_>
            <feature>
              <rects>
                <_>
                  23 18 1 3 -1.</_>
                <_>
                  22 19 1 1 3.</_></rects>
              <tilted>1</tilted></feature>
            <threshold>-3.6438589449971914e-003</threshold>
            <left_val>-0.3119443953037262</left_val>
            <right_val>0.0361260995268822</right_val></_></_>
        <_>
          <_>
            <feature>
              <rects>
                <_>
                  1 18 3 1 -1.</_>
                <_>
                  2 19 1 1 3.</_></rects>
              <tilted>1</tilted></feature>
            <threshold>5.7551008649170399e-003</threshold>
            <left_val>0.0476165600121021</left_val>
            <right_val>-0.6704673171043396</right_val></_></_>
        <_>
          <_>
            <feature>
              <rects>
                <_>
                  22 11 2 3 -1.</_>
                <_>
                  22 12 2 1 3.</_></rects>
              <tilted>0</tilted></feature>
            <threshold>8.3166053518652916e-003</threshold>
            <left_val>6.3747968524694443e-003</left_val>
            <right_val>-0.7939376235008240</right_val></_></_>
        <_>
          <_>
            <feature>
              <rects>
                <_>
                  9 6 2 2 -1.</_>
                <_>
                  9 6 1 1 2.</_>
                <_>
                  10 7 1 1 2.</_></rects>
              <tilted>0</tilted></feature>
            <threshold>-6.0214399127289653e-004</threshold>
            <left_val>0.3391762971878052</left_val>
            <right_val>-0.0852305814623833</right_val></_></_>
        <_>
          <_>
            <feature>
              <rects>
                <_>
                  21 11 3 4 -1.</_>
                <_>
                  21 12 3 2 2.</_></rects>
              <tilted>0</tilted></feature>
            <threshold>-4.6548461541533470e-003</threshold>
            <left_val>-0.3927679955959320</left_val>
            <right_val>0.0478404611349106</right_val></_></_>
        <_>
          <_>
            <feature>
              <rects>
                <_>
                  0 11 3 4 -1.</_>
                <_>
                  0 12 3 2 2.</_></rects>
              <tilted>0</tilted></feature>
            <threshold>4.5612128451466560e-003</threshold>
            <left_val>0.0609769709408283</left_val>
            <right_val>-0.4775913953781128</right_val></_></_>
        <_>
          <_>
            <feature>
              <rects>
                <_>
                  12 0 4 6 -1.</_>
                <_>
                  12 3 4 3 2.</_></rects>
              <tilted>0</tilted></feature>
            <threshold>-0.0258458107709885</threshold>
            <left_val>0.3036187887191773</left_val>
            <right_val>-0.0372143611311913</right_val></_></_>
        <_>
          <_>
            <feature>
              <rects>
                <_>
                  7 3 9 6 -1.</_>
                <_>
                  7 6 9 3 2.</_></rects>
              <tilted>0</tilted></feature>
            <threshold>0.0101102003827691</threshold>
            <left_val>-0.1192952021956444</left_val>
            <right_val>0.2306928038597107</right_val></_></_>
        <_>
          <_>
            <feature>
              <rects>
                <_>
                  15 7 8 17 -1.</_>
                <_>
                  15 7 4 17 2.</_></rects>
              <tilted>0</tilted></feature>
            <threshold>0.0439434796571732</threshold>
            <left_val>-0.0587660409510136</left_val>
            <right_val>0.2090041935443878</right_val></_></_>
        <_>
          <_>
            <feature>
              <rects>
                <_>
                  1 7 8 17 -1.</_>
                <_>
                  5 7 4 17 2.</_></rects>
              <tilted>0</tilted></feature>
            <threshold>-0.0650860667228699</threshold>
            <left_val>0.4268662929534912</left_val>
            <right_val>-0.0798813030123711</right_val></_></_>
        <_>
          <_>
            <feature>
              <rects>
                <_>
                  13 3 4 5 -1.</_>
                <_>
                  14 4 2 5 2.</_></rects>
              <tilted>1</tilted></feature>
            <threshold>8.5892956703901291e-003</threshold>
            <left_val>-0.0269701592624187</left_val>
            <right_val>0.1616723984479904</right_val></_></_>
        <_>
          <_>
            <feature>
              <rects>
                <_>
                  11 3 5 4 -1.</_>
                <_>
                  10 4 5 2 2.</_></rects>
              <tilted>1</tilted></feature>
            <threshold>-7.2915907949209213e-003</threshold>
            <left_val>0.3329159021377564</left_val>
            <right_val>-0.0968964174389839</right_val></_></_>
        <_>
          <_>
            <feature>
              <rects>
                <_>
                  12 1 10 4 -1.</_>
                <_>
                  12 1 5 4 2.</_></rects>
              <tilted>0</tilted></feature>
            <threshold>-8.6978059262037277e-003</threshold>
            <left_val>0.1599778980016708</left_val>
            <right_val>-0.0754418298602104</right_val></_></_>
        <_>
          <_>
            <feature>
              <rects>
                <_>
                  2 0 20 4 -1.</_>
                <_>
                  7 0 10 4 2.</_></rects>
              <tilted>0</tilted></feature>
            <threshold>0.0130245201289654</threshold>
            <left_val>-0.1477362066507340</left_val>
            <right_val>0.2720726132392883</right_val></_></_>
        <_>
          <_>
            <feature>
              <rects>
                <_>
                  11 4 3 3 -1.</_>
                <_>
                  11 5 3 1 3.</_></rects>
              <tilted>0</tilted></feature>
            <threshold>-8.0103920772671700e-003</threshold>
            <left_val>-0.5699214935302734</left_val>
            <right_val>0.0430067107081413</right_val></_></_>
        <_>
          <_>
            <feature>
              <rects>
                <_>
                  0 20 2 2 -1.</_>
                <_>
                  1 20 1 2 2.</_></rects>
              <tilted>0</tilted></feature>
            <threshold>4.2355430196039379e-004</threshold>
            <left_val>-0.1103388965129852</left_val>
            <right_val>0.2723675072193146</right_val></_></_>
        <_>
          <_>
            <feature>
              <rects>
                <_>
                  14 20 4 2 -1.</_>
                <_>
                  14 20 2 2 2.</_></rects>
              <tilted>0</tilted></feature>
            <threshold>-1.2825570302084088e-003</threshold>
            <left_val>0.1678134948015213</left_val>
            <right_val>-0.0668252483010292</right_val></_></_>
        <_>
          <_>
            <feature>
              <rects>
                <_>
                  1 10 2 2 -1.</_>
                <_>
                  2 10 1 2 2.</_></rects>
              <tilted>0</tilted></feature>
            <threshold>-6.8032648414373398e-004</threshold>
            <left_val>0.2758192121982575</left_val>
            <right_val>-0.0953838601708412</right_val></_></_>
        <_>
          <_>
            <feature>
              <rects>
                <_>
                  19 9 4 1 -1.</_>
                <_>
                  19 9 2 1 2.</_></rects>
              <tilted>0</tilted></feature>
            <threshold>-1.3698700349777937e-003</threshold>
            <left_val>0.1768278926610947</left_val>
            <right_val>-0.0561244599521160</right_val></_></_>
        <_>
          <_>
            <feature>
              <rects>
                <_>
                  1 9 4 1 -1.</_>
                <_>
                  3 9 2 1 2.</_></rects>
              <tilted>0</tilted></feature>
            <threshold>7.7414500992745161e-004</threshold>
            <left_val>-0.1143234968185425</left_val>
            <right_val>0.2379339933395386</right_val></_></_>
        <_>
          <_>
            <feature>
              <rects>
                <_>
                  14 20 4 2 -1.</_>
                <_>
                  14 20 2 2 2.</_></rects>
              <tilted>0</tilted></feature>
            <threshold>1.3768919743597507e-003</threshold>
            <left_val>-0.0948799625039101</left_val>
            <right_val>0.1865932941436768</right_val></_></_>
        <_>
          <_>
            <feature>
              <rects>
                <_>
                  0 10 3 3 -1.</_>
                <_>
                  1 11 1 1 9.</_></rects>
              <tilted>0</tilted></feature>
            <threshold>9.4843748956918716e-003</threshold>
            <left_val>0.0489499382674694</left_val>
            <right_val>-0.5222678780555725</right_val></_></_>
        <_>
          <_>
            <feature>
              <rects>
                <_>
                  0 8 24 12 -1.</_>
                <_>
                  0 11 24 6 2.</_></rects>
              <tilted>0</tilted></feature>
            <threshold>-0.1757164001464844</threshold>
            <left_val>-0.7496337294578552</left_val>
            <right_val>0.0281678605824709</right_val></_></_>
        <_>
          <_>
            <feature>
              <rects>
                <_>
                  0 2 4 3 -1.</_>
                <_>
                  0 3 4 1 3.</_></rects>
              <tilted>0</tilted></feature>
            <threshold>9.1307619586586952e-003</threshold>
            <left_val>0.0264266096055508</left_val>
            <right_val>-0.7076628804206848</right_val></_></_>
        <_>
          <_>
            <feature>
              <rects>
                <_>
                  14 0 4 3 -1.</_>
                <_>
                  14 0 2 3 2.</_></rects>
              <tilted>1</tilted></feature>
            <threshold>0.0226387307047844</threshold>
            <left_val>-0.0283880308270454</left_val>
            <right_val>0.1881684958934784</right_val></_></_>
        <_>
          <_>
            <feature>
              <rects>
                <_>
                  11 0 2 4 -1.</_>
                <_>
                  11 0 2 2 2.</_></rects>
              <tilted>1</tilted></feature>
            <threshold>-0.0150424996390939</threshold>
            <left_val>0.4704002141952515</left_val>
            <right_val>-0.0486759990453720</right_val></_></_>
        <_>
          <_>
            <feature>
              <rects>
                <_>
                  7 18 10 6 -1.</_>
                <_>
                  12 18 5 3 2.</_>
                <_>
                  7 21 5 3 2.</_></rects>
              <tilted>0</tilted></feature>
            <threshold>-9.3804653733968735e-003</threshold>
            <left_val>0.2410663068294525</left_val>
            <right_val>-0.0970259085297585</right_val></_></_>
        <_>
          <_>
            <feature>
              <rects>
                <_>
                  0 3 15 9 -1.</_>
                <_>
                  0 6 15 3 3.</_></rects>
              <tilted>0</tilted></feature>
            <threshold>0.0804065167903900</threshold>
            <left_val>0.0533074587583542</left_val>
            <right_val>-0.4555354118347168</right_val></_></_>
        <_>
          <_>
            <feature>
              <rects>
                <_>
                  0 23 24 1 -1.</_>
                <_>
                  6 23 12 1 2.</_></rects>
              <tilted>0</tilted></feature>
            <threshold>-0.0119883604347706</threshold>
            <left_val>0.2971526980400085</left_val>
            <right_val>-0.0801527723670006</right_val></_></_>
        <_>
          <_>
            <feature>
              <rects>
                <_>
                  9 1 3 1 -1.</_>
                <_>
                  10 1 1 1 3.</_></rects>
              <tilted>0</tilted></feature>
            <threshold>-7.0726807462051511e-004</threshold>
            <left_val>-0.2806104123592377</left_val>
            <right_val>0.0857309624552727</right_val></_></_>
        <_>
          <_>
            <feature>
              <rects>
                <_>
                  6 2 18 3 -1.</_>
                <_>
                  12 2 6 3 3.</_></rects>
              <tilted>0</tilted></feature>
            <threshold>-0.0316274911165237</threshold>
            <left_val>0.1937731951475143</left_val>
            <right_val>-0.0548948086798191</right_val></_></_>
        <_>
          <_>
            <feature>
              <rects>
                <_>
                  0 2 18 3 -1.</_>
                <_>
                  6 2 6 3 3.</_></rects>
              <tilted>0</tilted></feature>
            <threshold>-0.0161895100027323</threshold>
            <left_val>0.2450235038995743</left_val>
            <right_val>-0.1297332942485809</right_val></_></_>
        <_>
          <_>
            <feature>
              <rects>
                <_>
                  19 22 2 2 -1.</_>
                <_>
                  19 22 1 2 2.</_></rects>
              <tilted>0</tilted></feature>
            <threshold>-7.6761920936405659e-003</threshold>
            <left_val>-1.</left_val>
            <right_val>7.4781421571969986e-003</right_val></_></_>
        <_>
          <_>
            <feature>
              <rects>
                <_>
                  3 22 2 2 -1.</_>
                <_>
                  4 22 1 2 2.</_></rects>
              <tilted>0</tilted></feature>
            <threshold>1.8511220696382225e-004</threshold>
            <left_val>-0.1177368015050888</left_val>
            <right_val>0.2029155045747757</right_val></_></_>
        <_>
          <_>
            <feature>
              <rects>
                <_>
                  12 0 6 3 -1.</_>
                <_>
                  14 1 2 1 9.</_></rects>
              <tilted>0</tilted></feature>
            <threshold>-0.0391647517681122</threshold>
            <left_val>-0.3971881866455078</left_val>
            <right_val>7.8701283782720566e-003</right_val></_></_>
        <_>
          <_>
            <feature>
              <rects>
                <_>
                  6 0 6 3 -1.</_>
                <_>
                  8 1 2 1 9.</_></rects>
              <tilted>0</tilted></feature>
            <threshold>2.5093529839068651e-003</threshold>
            <left_val>-0.1166926026344299</left_val>
            <right_val>0.2006773948669434</right_val></_></_>
        <_>
          <_>
            <feature>
              <rects>
                <_>
                  22 1 2 3 -1.</_>
                <_>
                  22 2 2 1 3.</_></rects>
              <tilted>0</tilted></feature>
            <threshold>-4.9586892127990723e-003</threshold>
            <left_val>-0.5541031956672669</left_val>
            <right_val>0.0401965789496899</right_val></_></_>
        <_>
          <_>
            <feature>
              <rects>
                <_>
                  0 1 2 3 -1.</_>
                <_>
                  0 2 2 1 3.</_></rects>
              <tilted>0</tilted></feature>
            <threshold>5.1863808184862137e-003</threshold>
            <left_val>0.0334398709237576</left_val>
            <right_val>-0.6353954076766968</right_val></_></_></trees>
      <stage_threshold>-1.2109049558639526</stage_threshold>
      <parent>-1</parent>
      <next>-1</next></_>
    <_>
      <trees>
        <_>
          <_>
            <feature>
              <rects>
                <_>
                  1 12 6 8 -1.</_>
                <_>
                  4 12 3 8 2.</_></rects>
              <tilted>0</tilted></feature>
            <threshold>0.0184149406850338</threshold>
            <left_val>-0.0995233580470085</left_val>
            <right_val>0.3207288980484009</right_val></_></_>
        <_>
          <_>
            <feature>
              <rects>
                <_>
                  0 4 24 10 -1.</_>
                <_>
                  6 4 12 10 2.</_></rects>
              <tilted>0</tilted></feature>
            <threshold>-0.1108788028359413</threshold>
            <left_val>0.3566615879535675</left_val>
            <right_val>-0.0956702306866646</right_val></_></_>
        <_>
          <_>
            <feature>
              <rects>
                <_>
                  10 0 14 4 -1.</_>
                <_>
                  10 0 14 2 2.</_></rects>
              <tilted>1</tilted></feature>
            <threshold>-0.0355355218052864</threshold>
            <left_val>0.3929154872894287</left_val>
            <right_val>-0.0932727232575417</right_val></_></_>
        <_>
          <_>
            <feature>
              <rects>
                <_>
                  12 0 4 7 -1.</_>
                <_>
                  12 0 2 7 2.</_></rects>
              <tilted>1</tilted></feature>
            <threshold>-0.0316911302506924</threshold>
            <left_val>0.1667030006647110</left_val>
            <right_val>-0.0561365298926830</right_val></_></_>
        <_>
          <_>
            <feature>
              <rects>
                <_>
                  12 0 7 4 -1.</_>
                <_>
                  12 0 7 2 2.</_></rects>
              <tilted>1</tilted></feature>
            <threshold>0.0242765806615353</threshold>
            <left_val>-0.0909047201275826</left_val>
            <right_val>0.3655130863189697</right_val></_></_>
        <_>
          <_>
            <feature>
              <rects>
                <_>
                  8 3 9 4 -1.</_>
                <_>
                  8 5 9 2 2.</_></rects>
              <tilted>0</tilted></feature>
            <threshold>3.0555070843547583e-003</threshold>
            <left_val>-0.1493203043937683</left_val>
            <right_val>0.2256295979022980</right_val></_></_>
        <_>
          <_>
            <feature>
              <rects>
                <_>
                  0 1 4 22 -1.</_>
                <_>
                  2 1 2 22 2.</_></rects>
              <tilted>0</tilted></feature>
            <threshold>-0.0283276308327913</threshold>
            <left_val>0.3539525866508484</left_val>
            <right_val>-0.0704023987054825</right_val></_></_>
        <_>
          <_>
            <feature>
              <rects>
                <_>
                  15 1 8 13 -1.</_>
                <_>
                  15 1 4 13 2.</_></rects>
              <tilted>1</tilted></feature>
            <threshold>-0.0515144392848015</threshold>
            <left_val>0.1121433004736900</left_val>
            <right_val>-0.0528339110314846</right_val></_></_>
        <_>
          <_>
            <feature>
              <rects>
                <_>
                  1 6 2 3 -1.</_>
                <_>
                  2 6 1 3 2.</_></rects>
              <tilted>0</tilted></feature>
            <threshold>7.8159838449209929e-004</threshold>
            <left_val>-0.1075754985213280</left_val>
            <right_val>0.2512783110141754</right_val></_></_>
        <_>
          <_>
            <feature>
              <rects>
                <_>
                  2 11 22 13 -1.</_>
                <_>
                  2 11 11 13 2.</_></rects>
              <tilted>0</tilted></feature>
            <threshold>0.2120402008295059</threshold>
            <left_val>-0.0712916702032089</left_val>
            <right_val>0.3239425122737885</right_val></_></_>
        <_>
          <_>
            <feature>
              <rects>
                <_>
                  5 22 8 2 -1.</_>
                <_>
                  9 22 4 2 2.</_></rects>
              <tilted>0</tilted></feature>
            <threshold>6.8022320047020912e-003</threshold>
            <left_val>-0.0799211487174034</left_val>
            <right_val>0.2894096970558167</right_val></_></_>
        <_>
          <_>
            <feature>
              <rects>
                <_>
                  20 4 3 3 -1.</_>
                <_>
                  21 5 1 1 9.</_></rects>
              <tilted>0</tilted></feature>
            <threshold>-0.0169402007013559</threshold>
            <left_val>-0.5948935151100159</left_val>
            <right_val>0.0150392698124051</right_val></_></_>
        <_>
          <_>
            <feature>
              <rects>
                <_>
                  1 8 3 1 -1.</_>
                <_>
                  2 8 1 1 3.</_></rects>
              <tilted>0</tilted></feature>
            <threshold>4.1556400246918201e-003</threshold>
            <left_val>0.0297962501645088</left_val>
            <right_val>-0.7576081752777100</right_val></_></_>
        <_>
          <_>
            <feature>
              <rects>
                <_>
                  6 18 12 6 -1.</_>
                <_>
                  10 18 4 6 3.</_></rects>
              <tilted>0</tilted></feature>
            <threshold>-0.0116538703441620</threshold>
            <left_val>0.1895225048065186</left_val>
            <right_val>-0.1158796027302742</right_val></_></_>
        <_>
          <_>
            <feature>
              <rects>
                <_>
                  5 0 2 4 -1.</_>
                <_>
                  5 2 2 2 2.</_></rects>
              <tilted>0</tilted></feature>
            <threshold>-5.1243449561297894e-003</threshold>
            <left_val>0.3278818130493164</left_val>
            <right_val>-0.0691506192088127</right_val></_></_>
        <_>
          <_>
            <feature>
              <rects>
                <_>
                  8 3 16 2 -1.</_>
                <_>
                  12 3 8 2 2.</_></rects>
              <tilted>0</tilted></feature>
            <threshold>-0.0232087206095457</threshold>
            <left_val>0.4364838004112244</left_val>
            <right_val>-0.0567886494100094</right_val></_></_>
        <_>
          <_>
            <feature>
              <rects>
                <_>
                  6 0 6 4 -1.</_>
                <_>
                  6 2 6 2 2.</_></rects>
              <tilted>0</tilted></feature>
            <threshold>7.4120517820119858e-003</threshold>
            <left_val>-0.0854275524616241</left_val>
            <right_val>0.2965744137763977</right_val></_></_>
        <_>
          <_>
            <feature>
              <rects>
                <_>
                  21 3 3 3 -1.</_>
                <_>
                  21 4 3 1 3.</_></rects>
              <tilted>0</tilted></feature>
            <threshold>5.3061731159687042e-003</threshold>
            <left_val>0.0437977202236652</left_val>
            <right_val>-0.5089719295501709</right_val></_></_>
        <_>
          <_>
            <feature>
              <rects>
                <_>
                  0 14 1 3 -1.</_>
                <_>
                  0 15 1 1 3.</_></rects>
              <tilted>0</tilted></feature>
            <threshold>2.9023019596934319e-003</threshold>
            <left_val>0.0376138910651207</left_val>
            <right_val>-0.6184828281402588</right_val></_></_>
        <_>
          <_>
            <feature>
              <rects>
                <_>
                  12 15 1 4 -1.</_>
                <_>
                  12 17 1 2 2.</_></rects>
              <tilted>0</tilted></feature>
            <threshold>-4.6016317792236805e-003</threshold>
            <left_val>-0.3607974052429199</left_val>
            <right_val>0.0254260096698999</right_val></_></_>
        <_>
          <_>
            <feature>
              <rects>
                <_>
                  11 16 2 1 -1.</_>
                <_>
                  12 16 1 1 2.</_></rects>
              <tilted>0</tilted></feature>
            <threshold>2.3453710309695452e-004</threshold>
            <left_val>-0.1034855023026466</left_val>
            <right_val>0.2179082036018372</right_val></_></_>
        <_>
          <_>
            <feature>
              <rects>
                <_>
                  18 1 6 10 -1.</_>
                <_>
                  21 1 3 5 2.</_>
                <_>
                  18 6 3 5 2.</_></rects>
              <tilted>0</tilted></feature>
            <threshold>-0.0289407707750797</threshold>
            <left_val>0.4493952989578247</left_val>
            <right_val>-0.0438415817916393</right_val></_></_>
        <_>
          <_>
            <feature>
              <rects>
                <_>
                  9 1 13 8 -1.</_>
                <_>
                  9 1 13 4 2.</_></rects>
              <tilted>1</tilted></feature>
            <threshold>-0.1570114940404892</threshold>
            <left_val>0.5549889802932739</left_val>
            <right_val>-0.0341766402125359</right_val></_></_>
        <_>
          <_>
            <feature>
              <rects>
                <_>
                  22 2 2 3 -1.</_>
                <_>
                  22 3 2 1 3.</_></rects>
              <tilted>0</tilted></feature>
            <threshold>4.8460238613188267e-003</threshold>
            <left_val>0.0270767901092768</left_val>
            <right_val>-0.4105919003486633</right_val></_></_>
        <_>
          <_>
            <feature>
              <rects>
                <_>
                  0 1 6 10 -1.</_>
                <_>
                  0 1 3 5 2.</_>
                <_>
                  3 6 3 5 2.</_></rects>
              <tilted>0</tilted></feature>
            <threshold>-0.0176440794020891</threshold>
            <left_val>0.3260093927383423</left_val>
            <right_val>-0.0634221509099007</right_val></_></_>
        <_>
          <_>
            <feature>
              <rects>
                <_>
                  22 2 2 3 -1.</_>
                <_>
                  22 3 2 1 3.</_></rects>
              <tilted>0</tilted></feature>
            <threshold>-1.1998569971183315e-004</threshold>
            <left_val>-0.0986357927322388</left_val>
            <right_val>0.0778800770640373</right_val></_></_>
        <_>
          <_>
            <feature>
              <rects>
                <_>
                  4 6 4 4 -1.</_>
                <_>
                  4 6 2 4 2.</_></rects>
              <tilted>1</tilted></feature>
            <threshold>-4.2891209013760090e-003</threshold>
            <left_val>0.1803597062826157</left_val>
            <right_val>-0.1216403022408485</right_val></_></_>
        <_>
          <_>
            <feature>
              <rects>
                <_>
                  20 4 3 3 -1.</_>
                <_>
                  21 5 1 1 9.</_></rects>
              <tilted>0</tilted></feature>
            <threshold>9.9453823640942574e-003</threshold>
            <left_val>0.0199789199978113</left_val>
            <right_val>-0.2076206058263779</right_val></_></_>
        <_>
          <_>
            <feature>
              <rects>
                <_>
                  1 4 3 3 -1.</_>
                <_>
                  2 5 1 1 9.</_></rects>
              <tilted>0</tilted></feature>
            <threshold>0.0137543501332402</threshold>
            <left_val>0.0310529004782438</left_val>
            <right_val>-0.6711574196815491</right_val></_></_>
        <_>
          <_>
            <feature>
              <rects>
                <_>
                  23 7 1 12 -1.</_>
                <_>
                  20 10 1 6 2.</_></rects>
              <tilted>1</tilted></feature>
            <threshold>0.0132679799571633</threshold>
            <left_val>-0.0449937693774700</left_val>
            <right_val>0.1725616008043289</right_val></_></_>
        <_>
          <_>
            <feature>
              <rects>
                <_>
                  1 7 12 1 -1.</_>
                <_>
                  4 10 6 1 2.</_></rects>
              <tilted>1</tilted></feature>
            <threshold>-2.8150219004601240e-003</threshold>
            <left_val>0.1797499954700470</left_val>
            <right_val>-0.1339541971683502</right_val></_></_>
        <_>
          <_>
            <feature>
              <rects>
                <_>
                  22 2 2 3 -1.</_>
                <_>
                  22 3 2 1 3.</_></rects>
              <tilted>0</tilted></feature>
            <threshold>0.0126227000728250</threshold>
            <left_val>6.1846650205552578e-003</left_val>
            <right_val>-0.7259321212768555</right_val></_></_>
        <_>
          <_>
            <feature>
              <rects>
                <_>
                  0 2 2 3 -1.</_>
                <_>
                  0 3 2 1 3.</_></rects>
              <tilted>0</tilted></feature>
            <threshold>2.7562458999454975e-003</threshold>
            <left_val>0.0529470108449459</left_val>
            <right_val>-0.3859617114067078</right_val></_></_>
        <_>
          <_>
            <feature>
              <rects>
                <_>
                  11 7 2 1 -1.</_>
                <_>
                  11 7 1 1 2.</_></rects>
              <tilted>0</tilted></feature>
            <threshold>-2.9190830537118018e-004</threshold>
            <left_val>0.2106259018182755</left_val>
            <right_val>-0.1034464985132217</right_val></_></_>
        <_>
          <_>
            <feature>
              <rects>
                <_>
                  2 13 2 1 -1.</_>
                <_>
                  3 13 1 1 2.</_></rects>
              <tilted>0</tilted></feature>
            <threshold>3.2799321343190968e-004</threshold>
            <left_val>-0.0907917097210884</left_val>
            <right_val>0.2327916026115418</right_val></_></_>
        <_>
          <_>
            <feature>
              <rects>
                <_>
                  13 9 1 12 -1.</_>
                <_>
                  10 12 1 6 2.</_></rects>
              <tilted>1</tilted></feature>
            <threshold>0.0293151997029781</threshold>
            <left_val>-0.0114965196698904</left_val>
            <right_val>0.2861976921558380</right_val></_></_>
        <_>
          <_>
            <feature>
              <rects>
                <_>
                  11 9 12 1 -1.</_>
                <_>
                  14 12 6 1 2.</_></rects>
              <tilted>1</tilted></feature>
            <threshold>-8.1059541553258896e-003</threshold>
            <left_val>0.2545554935932159</left_val>
            <right_val>-0.0912809222936630</right_val></_></_>
        <_>
          <_>
            <feature>
              <rects>
                <_>
                  16 11 8 4 -1.</_>
                <_>
                  16 12 8 2 2.</_></rects>
              <tilted>0</tilted></feature>
            <threshold>-0.0185944195836782</threshold>
            <left_val>-0.7322320938110352</left_val>
            <right_val>0.0153492800891399</right_val></_></_>
        <_>
          <_>
            <feature>
              <rects>
                <_>
                  0 9 3 4 -1.</_>
                <_>
                  0 10 3 2 2.</_></rects>
              <tilted>0</tilted></feature>
            <threshold>4.7126398421823978e-003</threshold>
            <left_val>0.0535667091608047</left_val>
            <right_val>-0.3832092881202698</right_val></_></_>
        <_>
          <_>
            <feature>
              <rects>
                <_>
                  17 6 6 8 -1.</_>
                <_>
                  20 6 3 4 2.</_>
                <_>
                  17 10 3 4 2.</_></rects>
              <tilted>0</tilted></feature>
            <threshold>-0.0201258901506662</threshold>
            <left_val>0.2733404040336609</left_val>
            <right_val>-0.0315053611993790</right_val></_></_>
        <_>
          <_>
            <feature>
              <rects>
                <_>
                  3 0 10 4 -1.</_>
                <_>
                  3 0 5 2 2.</_>
                <_>
                  8 2 5 2 2.</_></rects>
              <tilted>0</tilted></feature>
            <threshold>-8.8876569643616676e-003</threshold>
            <left_val>0.2498694956302643</left_val>
            <right_val>-0.0800225883722305</right_val></_></_>
        <_>
          <_>
            <feature>
              <rects>
                <_>
                  12 2 12 2 -1.</_>
                <_>
                  15 2 6 2 2.</_></rects>
              <tilted>0</tilted></feature>
            <threshold>-0.0223710797727108</threshold>
            <left_val>0.3977093100547791</left_val>
            <right_val>-0.0238212198019028</right_val></_></_>
        <_>
          <_>
            <feature>
              <rects>
                <_>
                  0 2 12 2 -1.</_>
                <_>
                  3 2 6 2 2.</_></rects>
              <tilted>0</tilted></feature>
            <threshold>-7.2411987930536270e-003</threshold>
            <left_val>0.2490534037351608</left_val>
            <right_val>-0.1011245995759964</right_val></_></_>
        <_>
          <_>
            <feature>
              <rects>
                <_>
                  17 6 6 8 -1.</_>
                <_>
                  20 6 3 4 2.</_>
                <_>
                  17 10 3 4 2.</_></rects>
              <tilted>0</tilted></feature>
            <threshold>3.8769219536334276e-003</threshold>
            <left_val>-0.0694332271814346</left_val>
            <right_val>0.1118187978863716</right_val></_></_>
        <_>
          <_>
            <feature>
              <rects>
                <_>
                  0 4 6 10 -1.</_>
                <_>
                  0 4 3 5 2.</_>
                <_>
                  3 9 3 5 2.</_></rects>
              <tilted>0</tilted></feature>
            <threshold>-0.0150922201573849</threshold>
            <left_val>0.2935335040092468</left_val>
            <right_val>-0.0697175189852715</right_val></_></_>
        <_>
          <_>
            <feature>
              <rects>
                <_>
                  17 10 2 1 -1.</_>
                <_>
                  17 10 1 1 2.</_></rects>
              <tilted>1</tilted></feature>
            <threshold>-9.2909159138798714e-004</threshold>
            <left_val>0.0942923426628113</left_val>
            <right_val>-0.0331183709204197</right_val></_></_>
        <_>
          <_>
            <feature>
              <rects>
                <_>
                  7 10 1 2 -1.</_>
                <_>
                  7 10 1 1 2.</_></rects>
              <tilted>1</tilted></feature>
            <threshold>-6.1418948462232947e-004</threshold>
            <left_val>0.2140174061059952</left_val>
            <right_val>-0.0971513018012047</right_val></_></_>
        <_>
          <_>
            <feature>
              <rects>
                <_>
                  15 20 6 3 -1.</_>
                <_>
                  15 20 3 3 2.</_></rects>
              <tilted>0</tilted></feature>
            <threshold>-3.0802900437265635e-003</threshold>
            <left_val>0.1152110993862152</left_val>
            <right_val>-0.0522620305418968</right_val></_></_>
        <_>
          <_>
            <feature>
              <rects>
                <_>
                  3 20 6 3 -1.</_>
                <_>
                  6 20 3 3 2.</_></rects>
              <tilted>0</tilted></feature>
            <threshold>5.8648032136261463e-003</threshold>
            <left_val>-0.0885520130395889</left_val>
            <right_val>0.2511158883571625</right_val></_></_>
        <_>
          <_>
            <feature>
              <rects>
                <_>
                  22 11 2 3 -1.</_>
                <_>
                  22 12 2 1 3.</_></rects>
              <tilted>0</tilted></feature>
            <threshold>5.0822379998862743e-003</threshold>
            <left_val>0.0250659007579088</left_val>
            <right_val>-0.5035626292228699</right_val></_></_>
        <_>
          <_>
            <feature>
              <rects>
                <_>
                  0 11 2 3 -1.</_>
                <_>
                  0 12 2 1 3.</_></rects>
              <tilted>0</tilted></feature>
            <threshold>4.3758708052337170e-003</threshold>
            <left_val>0.0397916100919247</left_val>
            <right_val>-0.5671510100364685</right_val></_></_>
        <_>
          <_>
            <feature>
              <rects>
                <_>
                  1 5 23 3 -1.</_>
                <_>
                  1 6 23 1 3.</_></rects>
              <tilted>0</tilted></feature>
            <threshold>-0.0244904700666666</threshold>
            <left_val>-0.4727442860603333</left_val>
            <right_val>0.0262201298028231</right_val></_></_>
        <_>
          <_>
            <feature>
              <rects>
                <_>
                  0 14 24 3 -1.</_>
                <_>
                  0 15 24 1 3.</_></rects>
              <tilted>0</tilted></feature>
            <threshold>-0.0123221203684807</threshold>
            <left_val>-0.3350890874862671</left_val>
            <right_val>0.0566229000687599</right_val></_></_>
        <_>
          <_>
            <feature>
              <rects>
                <_>
                  0 15 24 2 -1.</_>
                <_>
                  0 16 24 1 2.</_></rects>
              <tilted>0</tilted></feature>
            <threshold>-4.3215728364884853e-003</threshold>
            <left_val>-0.1927528977394104</left_val>
            <right_val>0.1039441004395485</right_val></_></_>
        <_>
          <_>
            <feature>
              <rects>
                <_>
                  8 14 3 6 -1.</_>
                <_>
                  6 16 3 2 3.</_></rects>
              <tilted>1</tilted></feature>
            <threshold>-0.0153201101347804</threshold>
            <left_val>0.2888252139091492</left_val>
            <right_val>-0.0796091333031654</right_val></_></_>
        <_>
          <_>
            <feature>
              <rects>
                <_>
                  12 10 1 4 -1.</_>
                <_>
                  12 11 1 2 2.</_></rects>
              <tilted>0</tilted></feature>
            <threshold>2.7474248781800270e-004</threshold>
            <left_val>-0.0503991693258286</left_val>
            <right_val>0.0905970633029938</right_val></_></_>
        <_>
          <_>
            <feature>
              <rects>
                <_>
                  0 1 2 3 -1.</_>
                <_>
                  0 2 2 1 3.</_></rects>
              <tilted>0</tilted></feature>
            <threshold>3.6125320475548506e-003</threshold>
            <left_val>0.0409553498029709</left_val>
            <right_val>-0.4994930922985077</right_val></_></_>
        <_>
          <_>
            <feature>
              <rects>
                <_>
                  21 12 1 4 -1.</_>
                <_>
                  20 13 1 2 2.</_></rects>
              <tilted>1</tilted></feature>
            <threshold>0.0108753303065896</threshold>
            <left_val>3.8763969205319881e-003</left_val>
            <right_val>-0.5943251848220825</right_val></_></_>
        <_>
          <_>
            <feature>
              <rects>
                <_>
                  3 12 4 1 -1.</_>
                <_>
                  4 13 2 1 2.</_></rects>
              <tilted>1</tilted></feature>
            <threshold>6.6310358233749866e-003</threshold>
            <left_val>0.0331742689013481</left_val>
            <right_val>-0.5930225253105164</right_val></_></_>
        <_>
          <_>
            <feature>
              <rects>
                <_>
                  21 19 2 2 -1.</_>
                <_>
                  21 19 1 2 2.</_></rects>
              <tilted>1</tilted></feature>
            <threshold>2.4012599606066942e-003</threshold>
            <left_val>-0.0519855506718159</left_val>
            <right_val>0.1517709046602249</right_val></_></_>
        <_>
          <_>
            <feature>
              <rects>
                <_>
                  8 1 9 6 -1.</_>
                <_>
                  6 3 9 2 3.</_></rects>
              <tilted>1</tilted></feature>
            <threshold>-0.0348775908350945</threshold>
            <left_val>0.2867785096168518</left_val>
            <right_val>-0.0670387521386147</right_val></_></_>
        <_>
          <_>
            <feature>
              <rects>
                <_>
                  10 2 12 10 -1.</_>
                <_>
                  16 2 6 5 2.</_>
                <_>
                  10 7 6 5 2.</_></rects>
              <tilted>0</tilted></feature>
            <threshold>-0.0687640309333801</threshold>
            <left_val>0.4662039875984192</left_val>
            <right_val>-0.0262722298502922</right_val></_></_>
        <_>
          <_>
            <feature>
              <rects>
                <_>
                  2 2 12 10 -1.</_>
                <_>
                  2 2 6 5 2.</_>
                <_>
                  8 7 6 5 2.</_></rects>
              <tilted>0</tilted></feature>
            <threshold>0.0345760397613049</threshold>
            <left_val>-0.0832142904400826</left_val>
            <right_val>0.3031190931797028</right_val></_></_>
        <_>
          <_>
            <feature>
              <rects>
                <_>
                  20 8 2 6 -1.</_>
                <_>
                  20 10 2 2 3.</_></rects>
              <tilted>0</tilted></feature>
            <threshold>9.9110472947359085e-003</threshold>
            <left_val>0.0229906495660543</left_val>
            <right_val>-0.3055926859378815</right_val></_></_>
        <_>
          <_>
            <feature>
              <rects>
                <_>
                  2 8 2 6 -1.</_>
                <_>
                  2 10 2 2 3.</_></rects>
              <tilted>0</tilted></feature>
            <threshold>1.1443559778854251e-003</threshold>
            <left_val>-0.1143836006522179</left_val>
            <right_val>0.1950810998678207</right_val></_></_>
        <_>
          <_>
            <feature>
              <rects>
                <_>
                  16 19 3 3 -1.</_>
                <_>
                  17 20 1 1 9.</_></rects>
              <tilted>0</tilted></feature>
            <threshold>0.0202316008508205</threshold>
            <left_val>0.0224774591624737</left_val>
            <right_val>-0.9069948196411133</right_val></_></_>
        <_>
          <_>
            <feature>
              <rects>
                <_>
                  7 1 3 1 -1.</_>
                <_>
                  8 1 1 1 3.</_></rects>
              <tilted>0</tilted></feature>
            <threshold>-3.0258810147643089e-003</threshold>
            <left_val>-0.6456640958786011</left_val>
            <right_val>0.0239857006818056</right_val></_></_>
        <_>
          <_>
            <feature>
              <rects>
                <_>
                  21 15 2 5 -1.</_>
                <_>
                  21 15 1 5 2.</_></rects>
              <tilted>0</tilted></feature>
            <threshold>2.1829509641975164e-003</threshold>
            <left_val>-0.0444947294890881</left_val>
            <right_val>0.1400092989206314</right_val></_></_>
        <_>
          <_>
            <feature>
              <rects>
                <_>
                  5 19 3 3 -1.</_>
                <_>
                  6 20 1 1 9.</_></rects>
              <tilted>0</tilted></feature>
            <threshold>0.0146623095497489</threshold>
            <left_val>0.0282432697713375</left_val>
            <right_val>-0.6652141213417053</right_val></_></_>
        <_>
          <_>
            <feature>
              <rects>
                <_>
                  3 18 18 2 -1.</_>
                <_>
                  12 18 9 1 2.</_>
                <_>
                  3 19 9 1 2.</_></rects>
              <tilted>0</tilted></feature>
            <threshold>-0.0140112796798348</threshold>
            <left_val>-0.6234725117683411</left_val>
            <right_val>0.0284748692065477</right_val></_></_>
        <_>
          <_>
            <feature>
              <rects>
                <_>
                  1 15 2 5 -1.</_>
                <_>
                  2 15 1 5 2.</_></rects>
              <tilted>0</tilted></feature>
            <threshold>1.3296790421009064e-003</threshold>
            <left_val>-0.0965489521622658</left_val>
            <right_val>0.2409157007932663</right_val></_></_>
        <_>
          <_>
            <feature>
              <rects>
                <_>
                  20 13 4 10 -1.</_>
                <_>
                  20 13 2 10 2.</_></rects>
              <tilted>0</tilted></feature>
            <threshold>-0.0125753795728087</threshold>
            <left_val>0.3528484106063843</left_val>
            <right_val>-0.0970833301544189</right_val></_></_>
        <_>
          <_>
            <feature>
              <rects>
                <_>
                  0 13 4 10 -1.</_>
                <_>
                  2 13 2 10 2.</_></rects>
              <tilted>0</tilted></feature>
            <threshold>-7.6165888458490372e-003</threshold>
            <left_val>0.2486546039581299</left_val>
            <right_val>-0.0727661326527596</right_val></_></_>
        <_>
          <_>
            <feature>
              <rects>
                <_>
                  0 0 24 24 -1.</_>
                <_>
                  6 0 12 24 2.</_></rects>
              <tilted>0</tilted></feature>
            <threshold>0.4330222904682159</threshold>
            <left_val>-0.0318382084369659</left_val>
            <right_val>0.6836686134338379</right_val></_></_>
        <_>
          <_>
            <feature>
              <rects>
                <_>
                  2 0 1 16 -1.</_>
                <_>
                  2 4 1 8 2.</_></rects>
              <tilted>0</tilted></feature>
            <threshold>-1.1113589862361550e-003</threshold>
            <left_val>0.1546923965215683</left_val>
            <right_val>-0.1320476979017258</right_val></_></_>
        <_>
          <_>
            <feature>
              <rects>
                <_>
                  18 16 3 6 -1.</_>
                <_>
                  19 16 1 6 3.</_></rects>
              <tilted>0</tilted></feature>
            <threshold>6.0316720046103001e-003</threshold>
            <left_val>0.0384074300527573</left_val>
            <right_val>-0.2925393879413605</right_val></_></_>
        <_>
          <_>
            <feature>
              <rects>
                <_>
                  7 4 2 3 -1.</_>
                <_>
                  6 5 2 1 3.</_></rects>
              <tilted>1</tilted></feature>
            <threshold>0.0140331797301769</threshold>
            <left_val>0.0233217291533947</left_val>
            <right_val>-0.7547531127929688</right_val></_></_>
        <_>
          <_>
            <feature>
              <rects>
                <_>
                  9 11 8 4 -1.</_>
                <_>
                  11 11 4 4 2.</_></rects>
              <tilted>0</tilted></feature>
            <threshold>7.2138938121497631e-003</threshold>
            <left_val>-0.0494595207273960</left_val>
            <right_val>0.1356690973043442</right_val></_></_>
        <_>
          <_>
            <feature>
              <rects>
                <_>
                  3 0 18 20 -1.</_>
                <_>
                  9 0 6 20 3.</_></rects>
              <tilted>0</tilted></feature>
            <threshold>-0.0775051712989807</threshold>
            <left_val>0.2140565067529678</left_val>
            <right_val>-0.1075519993901253</right_val></_></_>
        <_>
          <_>
            <feature>
              <rects>
                <_>
                  16 7 8 9 -1.</_>
                <_>
                  18 9 4 9 2.</_></rects>
              <tilted>1</tilted></feature>
            <threshold>0.1176429986953735</threshold>
            <left_val>-5.9298239648342133e-003</left_val>
            <right_val>0.5759575963020325</right_val></_></_>
        <_>
          <_>
            <feature>
              <rects>
                <_>
                  8 7 9 8 -1.</_>
                <_>
                  6 9 9 4 2.</_></rects>
              <tilted>1</tilted></feature>
            <threshold>0.0735275894403458</threshold>
            <left_val>-0.0387208797037601</left_val>
            <right_val>0.5586879849433899</right_val></_></_>
        <_>
          <_>
            <feature>
              <rects>
                <_>
                  14 7 10 12 -1.</_>
                <_>
                  14 11 10 4 3.</_></rects>
              <tilted>0</tilted></feature>
            <threshold>-0.1096502989530563</threshold>
            <left_val>-0.3943589031696320</left_val>
            <right_val>0.0217495895922184</right_val></_></_>
        <_>
          <_>
            <feature>
              <rects>
                <_>
                  4 5 12 14 -1.</_>
                <_>
                  4 12 12 7 2.</_></rects>
              <tilted>0</tilted></feature>
            <threshold>0.1374440044164658</threshold>
            <left_val>0.0494420006871223</left_val>
            <right_val>-0.4183987975120544</right_val></_></_>
        <_>
          <_>
            <feature>
              <rects>
                <_>
                  12 10 1 4 -1.</_>
                <_>
                  12 11 1 2 2.</_></rects>
              <tilted>0</tilted></feature>
            <threshold>4.7535500489175320e-003</threshold>
            <left_val>0.0128044998273253</left_val>
            <right_val>-0.5841317772865295</right_val></_></_>
        <_>
          <_>
            <feature>
              <rects>
                <_>
                  11 10 1 4 -1.</_>
                <_>
                  11 11 1 2 2.</_></rects>
              <tilted>0</tilted></feature>
            <threshold>1.6925530508160591e-004</threshold>
            <left_val>-0.1340699046850205</left_val>
            <right_val>0.1906765997409821</right_val></_></_>
        <_>
          <_>
            <feature>
              <rects>
                <_>
                  20 6 4 6 -1.</_>
                <_>
                  20 8 4 2 3.</_></rects>
              <tilted>0</tilted></feature>
            <threshold>0.0293702706694603</threshold>
            <left_val>0.0248017609119415</left_val>
            <right_val>-0.5321391820907593</right_val></_></_>
        <_>
          <_>
            <feature>
              <rects>
                <_>
                  0 6 4 6 -1.</_>
                <_>
                  0 8 4 2 3.</_></rects>
              <tilted>0</tilted></feature>
            <threshold>-0.0128512503579259</threshold>
            <left_val>-0.3980144858360291</left_val>
            <right_val>0.0510985888540745</right_val></_></_></trees>
      <stage_threshold>-1.0371789932250977</stage_threshold>
      <parent>0</parent>
      <next>-1</next></_>
    <_>
      <trees>
        <_>
          <_>
            <feature>
              <rects>
                <_>
                  2 2 8 3 -1.</_>
                <_>
                  6 2 4 3 2.</_></rects>
              <tilted>0</tilted></feature>
            <threshold>-8.6312759667634964e-003</threshold>
            <left_val>0.2633993029594421</left_val>
            <right_val>-0.1166519001126289</right_val></_></_>
        <_>
          <_>
            <feature>
              <rects>
                <_>
                  20 7 4 10 -1.</_>
                <_>
                  20 7 2 10 2.</_></rects>
              <tilted>0</tilted></feature>
            <threshold>0.0154183404520154</threshold>
            <left_val>-0.0713195875287056</left_val>
            <right_val>0.3125660121440888</right_val></_></_>
        <_>
          <_>
            <feature>
              <rects>
                <_>
                  2 0 20 10 -1.</_>
                <_>
                  2 5 20 5 2.</_></rects>
              <tilted>0</tilted></feature>
            <threshold>-0.1072499006986618</threshold>
            <left_val>0.3227790892124176</left_val>
            <right_val>-0.1199491992592812</right_val></_></_>
        <_>
          <_>
            <feature>
              <rects>
                <_>
                  13 0 7 8 -1.</_>
                <_>
                  13 4 7 4 2.</_></rects>
              <tilted>0</tilted></feature>
            <threshold>8.4285363554954529e-003</threshold>
            <left_val>-0.1321039050817490</left_val>
            <right_val>0.1874673962593079</right_val></_></_>
        <_>
          <_>
            <feature>
              <rects>
                <_>
                  0 2 4 12 -1.</_>
                <_>
                  0 2 2 6 2.</_>
                <_>
                  2 8 2 6 2.</_></rects>
              <tilted>0</tilted></feature>
            <threshold>0.0168481506407261</threshold>
            <left_val>-0.0512670204043388</left_val>
            <right_val>0.4502832889556885</right_val></_></_>
        <_>
          <_>
            <feature>
              <rects>
                <_>
                  20 2 4 10 -1.</_>
                <_>
                  22 2 2 5 2.</_>
                <_>
                  20 7 2 5 2.</_></rects>
              <tilted>0</tilted></feature>
            <threshold>-3.6946609616279602e-003</threshold>
            <left_val>0.1254388988018036</left_val>
            <right_val>-0.0975385233759880</right_val></_></_>
        <_>
          <_>
            <feature>
              <rects>
                <_>
                  0 2 4 10 -1.</_>
                <_>
                  0 2 2 5 2.</_>
                <_>
                  2 7 2 5 2.</_></rects>
              <tilted>0</tilted></feature>
            <threshold>-7.0493398234248161e-003</threshold>
            <left_val>0.2794527113437653</left_val>
            <right_val>-0.0829828977584839</right_val></_></_>
        <_>
          <_>
            <feature>
              <rects>
                <_>
                  9 0 15 22 -1.</_>
                <_>
                  9 11 15 11 2.</_></rects>
              <tilted>0</tilted></feature>
            <threshold>-0.5280749797821045</threshold>
            <left_val>1.</left_val>
            <right_val>-0.0111305797472596</right_val></_></_>
        <_>
          <_>
            <feature>
              <rects>
                <_>
                  0 0 15 22 -1.</_>
                <_>
                  0 11 15 11 2.</_></rects>
              <tilted>0</tilted></feature>
            <threshold>0.0765664428472519</threshold>
            <left_val>-0.1236466020345688</left_val>
            <right_val>0.2072212994098663</right_val></_></_>
        <_>
          <_>
            <feature>
              <rects>
                <_>
                  12 0 5 4 -1.</_>
                <_>
                  12 2 5 2 2.</_></rects>
              <tilted>0</tilted></feature>
            <threshold>-0.0180948097258806</threshold>
            <left_val>0.2727850973606110</left_val>
            <right_val>-0.0275635104626417</right_val></_></_>
        <_>
          <_>
            <feature>
              <rects>
                <_>
                  7 0 5 4 -1.</_>
                <_>
                  7 2 5 2 2.</_></rects>
              <tilted>0</tilted></feature>
            <threshold>5.4864399135112762e-003</threshold>
            <left_val>-0.0853992700576782</left_val>
            <right_val>0.2644594907760620</right_val></_></_>
        <_>
          <_>
            <feature>
              <rects>
                <_>
                  12 0 2 12 -1.</_>
                <_>
                  12 0 1 12 2.</_></rects>
              <tilted>1</tilted></feature>
            <threshold>-3.6625720094889402e-003</threshold>
            <left_val>0.0936930477619171</left_val>
            <right_val>-0.0458681993186474</right_val></_></_>
        <_>
          <_>
            <feature>
              <rects>
                <_>
                  12 0 12 2 -1.</_>
                <_>
                  12 0 12 1 2.</_></rects>
              <tilted>1</tilted></feature>
            <threshold>8.8702831417322159e-003</threshold>
            <left_val>-0.0889358371496201</left_val>
            <right_val>0.2817622125148773</right_val></_></_>
        <_>
          <_>
            <feature>
              <rects>
                <_>
                  16 1 2 16 -1.</_>
                <_>
                  16 1 1 16 2.</_></rects>
              <tilted>1</tilted></feature>
            <threshold>0.0261992998421192</threshold>
            <left_val>-0.0122038498520851</left_val>
            <right_val>0.2733317911624908</right_val></_></_>
        <_>
          <_>
            <feature>
              <rects>
                <_>
                  8 1 16 2 -1.</_>
                <_>
                  8 1 16 1 2.</_></rects>
              <tilted>1</tilted></feature>
            <threshold>0.0170002803206444</threshold>
            <left_val>-0.0534099191427231</left_val>
            <right_val>0.3272252976894379</right_val></_></_>
        <_>
          <_>
            <feature>
              <rects>
                <_>
                  17 2 2 17 -1.</_>
                <_>
                  17 2 1 17 2.</_></rects>
              <tilted>1</tilted></feature>
            <threshold>-0.0150133902207017</threshold>
            <left_val>0.1580788940191269</left_val>
            <right_val>-0.0248124506324530</right_val></_></_>
        <_>
          <_>
            <feature>
              <rects>
                <_>
                  0 14 4 2 -1.</_>
                <_>
                  2 14 2 2 2.</_></rects>
              <tilted>0</tilted></feature>
            <threshold>1.4306970406323671e-003</threshold>
            <left_val>-0.0981334671378136</left_val>
            <right_val>0.1833091974258423</right_val></_></_>
        <_>
          <_>
            <feature>
              <rects>
                <_>
                  20 3 4 17 -1.</_>
                <_>
                  20 3 2 17 2.</_></rects>
              <tilted>0</tilted></feature>
            <threshold>-0.0296672806143761</threshold>
            <left_val>0.3276182115077972</left_val>
            <right_val>-0.0701712965965271</right_val></_></_>
        <_>
          <_>
            <feature>
              <rects>
                <_>
                  0 7 1 3 -1.</_>
                <_>
                  0 8 1 1 3.</_></rects>
              <tilted>0</tilted></feature>
            <threshold>-3.2000760547816753e-003</threshold>
            <left_val>-0.5865678191184998</left_val>
            <right_val>0.0403523594141006</right_val></_></_>
        <_>
          <_>
            <feature>
              <rects>
                <_>
                  17 20 3 2 -1.</_>
                <_>
                  18 20 1 2 3.</_></rects>
              <tilted>0</tilted></feature>
            <threshold>6.4186789095401764e-003</threshold>
            <left_val>6.3387621194124222e-003</left_val>
            <right_val>-0.4279788136482239</right_val></_></_>
        <_>
          <_>
            <feature>
              <rects>
                <_>
                  0 14 3 3 -1.</_>
                <_>
                  1 15 1 1 9.</_></rects>
              <tilted>0</tilted></feature>
            <threshold>-0.0127892997115850</threshold>
            <left_val>-0.5855895876884460</left_val>
            <right_val>0.0315930284559727</right_val></_></_>
        <_>
          <_>
            <feature>
              <rects>
                <_>
                  22 4 2 18 -1.</_>
                <_>
                  22 4 1 18 2.</_></rects>
              <tilted>0</tilted></feature>
            <threshold>6.5676448866724968e-003</threshold>
            <left_val>-0.0448646396398544</left_val>
            <right_val>0.1747801005840302</right_val></_></_>
        <_>
          <_>
            <feature>
              <rects>
                <_>
                  0 4 2 18 -1.</_>
                <_>
                  1 4 1 18 2.</_></rects>
              <tilted>0</tilted></feature>
            <threshold>-8.7190214544534683e-003</threshold>
            <left_val>0.3295680880546570</left_val>
            <right_val>-0.0693515688180923</right_val></_></_>
        <_>
          <_>
            <feature>
              <rects>
                <_>
                  22 1 2 17 -1.</_>
                <_>
                  22 1 1 17 2.</_></rects>
              <tilted>0</tilted></feature>
            <threshold>-6.7040040157735348e-003</threshold>
            <left_val>0.1575150042772293</left_val>
            <right_val>-0.0414236299693584</right_val></_></_>
        <_>
          <_>
            <feature>
              <rects>
                <_>
                  0 1 2 17 -1.</_>
                <_>
                  1 1 1 17 2.</_></rects>
              <tilted>0</tilted></feature>
            <threshold>8.1200320273637772e-003</threshold>
            <left_val>-0.0631220713257790</left_val>
            <right_val>0.3770793080329895</right_val></_></_>
        <_>
          <_>
            <feature>
              <rects>
                <_>
                  21 18 3 3 -1.</_>
                <_>
                  20 19 3 1 3.</_></rects>
              <tilted>1</tilted></feature>
            <threshold>-4.7712810337543488e-003</threshold>
            <left_val>-0.1689029932022095</left_val>
            <right_val>0.0482337288558483</right_val></_></_>
        <_>
          <_>
            <feature>
              <rects>
                <_>
                  3 18 3 3 -1.</_>
                <_>
                  4 19 1 3 3.</_></rects>
              <tilted>1</tilted></feature>
            <threshold>7.4071120470762253e-003</threshold>
            <left_val>0.0455407090485096</left_val>
            <right_val>-0.3690820038318634</right_val></_></_>
        <_>
          <_>
            <feature>
              <rects>
                <_>
                  20 7 2 16 -1.</_>
                <_>
                  20 11 2 8 2.</_></rects>
              <tilted>0</tilted></feature>
            <threshold>-5.9859920293092728e-003</threshold>
            <left_val>0.0527195706963539</left_val>
            <right_val>-0.0318347401916981</right_val></_></_>
        <_>
          <_>
            <feature>
              <rects>
                <_>
                  8 1 6 3 -1.</_>
                <_>
                  8 2 6 1 3.</_></rects>
              <tilted>0</tilted></feature>
            <threshold>5.9032230637967587e-003</threshold>
            <left_val>0.0519024804234505</left_val>
            <right_val>-0.3360075950622559</right_val></_></_>
        <_>
          <_>
            <feature>
              <rects>
                <_>
                  14 1 4 7 -1.</_>
                <_>
                  15 2 2 7 2.</_></rects>
              <tilted>1</tilted></feature>
            <threshold>3.8052969612181187e-003</threshold>
            <left_val>-0.0452729500830173</left_val>
            <right_val>0.0918926298618317</right_val></_></_>
        <_>
          <_>
            <feature>
              <rects>
                <_>
                  10 1 7 4 -1.</_>
                <_>
                  9 2 7 2 2.</_></rects>
              <tilted>1</tilted></feature>
            <threshold>-0.0102052595466375</threshold>
            <left_val>0.2756663858890533</left_val>
            <right_val>-0.0712521970272064</right_val></_></_>
        <_>
          <_>
            <feature>
              <rects>
                <_>
                  10 4 6 1 -1.</_>
                <_>
                  10 4 3 1 2.</_></rects>
              <tilted>0</tilted></feature>
            <threshold>3.2971709151752293e-004</threshold>
            <left_val>-0.0684547275304794</left_val>
            <right_val>0.0918869525194168</right_val></_></_>
        <_>
          <_>
            <feature>
              <rects>
                <_>
                  2 6 2 4 -1.</_>
                <_>
                  2 6 1 2 2.</_>
                <_>
                  3 8 1 2 2.</_></rects>
              <tilted>0</tilted></feature>
            <threshold>6.8483210634440184e-004</threshold>
            <left_val>-0.0925880819559097</left_val>
            <right_val>0.2139492928981781</right_val></_></_>
        <_>
          <_>
            <feature>
              <rects>
                <_>
                  20 5 2 4 -1.</_>
                <_>
                  21 5 1 2 2.</_>
                <_>
                  20 7 1 2 2.</_></rects>
              <tilted>0</tilted></feature>
            <threshold>-3.7925590295344591e-003</threshold>
            <left_val>-0.2766959071159363</left_val>
            <right_val>0.0182082094252110</right_val></_></_>
        <_>
          <_>
            <feature>
              <rects>
                <_>
                  2 5 2 4 -1.</_>
                <_>
                  2 5 1 2 2.</_>
                <_>
                  3 7 1 2 2.</_></rects>
              <tilted>0</tilted></feature>
            <threshold>-5.6946912081912160e-004</threshold>
            <left_val>0.1984446048736572</left_val>
            <right_val>-0.0992864221334457</right_val></_></_>
        <_>
          <_>
            <feature>
              <rects>
                <_>
                  22 3 1 3 -1.</_>
                <_>
                  22 4 1 1 3.</_></rects>
              <tilted>0</tilted></feature>
            <threshold>2.3115109652280807e-003</threshold>
            <left_val>0.0327652804553509</left_val>
            <right_val>-0.4469797015190125</right_val></_></_>
        <_>
          <_>
            <feature>
              <rects>
                <_>
                  8 20 8 4 -1.</_>
                <_>
                  8 22 8 2 2.</_></rects>
              <tilted>0</tilted></feature>
            <threshold>-0.0156678203493357</threshold>
            <left_val>0.3070670068264008</left_val>
            <right_val>-0.0624155998229980</right_val></_></_>
        <_>
          <_>
            <feature>
              <rects>
                <_>
                  3 20 20 4 -1.</_>
                <_>
                  3 22 20 2 2.</_></rects>
              <tilted>0</tilted></feature>
            <threshold>0.0126618901267648</threshold>
            <left_val>-0.0875193774700165</left_val>
            <right_val>0.2232412993907929</right_val></_></_>
        <_>
          <_>
            <feature>
              <rects>
                <_>
                  1 3 1 3 -1.</_>
                <_>
                  1 4 1 1 3.</_></rects>
              <tilted>0</tilted></feature>
            <threshold>2.5261701084673405e-003</threshold>
            <left_val>0.0358944311738014</left_val>
            <right_val>-0.5579519271850586</right_val></_></_>
        <_>
          <_>
            <feature>
              <rects>
                <_>
                  13 1 11 4 -1.</_>
                <_>
                  13 1 11 2 2.</_></rects>
              <tilted>1</tilted></feature>
            <threshold>-0.0115105900913477</threshold>
            <left_val>0.1048033982515335</left_val>
            <right_val>-0.0722475275397301</right_val></_></_>
        <_>
          <_>
            <feature>
              <rects>
                <_>
                  11 1 4 11 -1.</_>
                <_>
                  11 1 2 11 2.</_></rects>
              <tilted>1</tilted></feature>
            <threshold>0.0531283803284168</threshold>
            <left_val>-0.0476866811513901</left_val>
            <right_val>0.4605155885219574</right_val></_></_>
        <_>
          <_>
            <feature>
              <rects>
                <_>
                  11 0 3 1 -1.</_>
                <_>
                  12 0 1 1 3.</_></rects>
              <tilted>0</tilted></feature>
            <threshold>-8.7837508181110024e-004</threshold>
            <left_val>-0.2104198932647705</left_val>
            <right_val>0.0580869317054749</right_val></_></_>
        <_>
          <_>
            <feature>
              <rects>
                <_>
                  0 3 9 3 -1.</_>
                <_>
                  0 4 9 1 3.</_></rects>
              <tilted>0</tilted></feature>
            <threshold>-0.0112304799258709</threshold>
            <left_val>-0.4923552870750427</left_val>
            <right_val>0.0354855209589005</right_val></_></_>
        <_>
          <_>
            <feature>
              <rects>
                <_>
                  13 0 11 4 -1.</_>
                <_>
                  13 2 11 2 2.</_></rects>
              <tilted>0</tilted></feature>
            <threshold>3.1243769917637110e-003</threshold>
            <left_val>-0.0523810498416424</left_val>
            <right_val>0.0835988670587540</right_val></_></_>
        <_>
          <_>
            <feature>
              <rects>
                <_>
                  0 0 11 4 -1.</_>
                <_>
                  0 2 11 2 2.</_></rects>
              <tilted>0</tilted></feature>
            <threshold>-0.0143334399908781</threshold>
            <left_val>0.2611994147300720</left_val>
            <right_val>-0.0904244035482407</right_val></_></_>
        <_>
          <_>
            <feature>
              <rects>
                <_>
                  17 0 4 2 -1.</_>
                <_>
                  17 1 4 1 2.</_></rects>
              <tilted>0</tilted></feature>
            <threshold>-3.0365519342012703e-004</threshold>
            <left_val>-0.0726530626416206</left_val>
            <right_val>0.0565693899989128</right_val></_></_>
        <_>
          <_>
            <feature>
              <rects>
                <_>
                  10 4 2 1 -1.</_>
                <_>
                  11 4 1 1 2.</_></rects>
              <tilted>0</tilted></feature>
            <threshold>-2.4915850372053683e-004</threshold>
            <left_val>0.1975584030151367</left_val>
            <right_val>-0.0930982232093811</right_val></_></_>
        <_>
          <_>
            <feature>
              <rects>
                <_>
                  8 4 10 2 -1.</_>
                <_>
                  13 4 5 1 2.</_>
                <_>
                  8 5 5 1 2.</_></rects>
              <tilted>0</tilted></feature>
            <threshold>-7.4994689784944057e-003</threshold>
            <left_val>-0.2640998959541321</left_val>
            <right_val>0.0254417993128300</right_val></_></_>
        <_>
          <_>
            <feature>
              <rects>
                <_>
                  3 0 4 2 -1.</_>
                <_>
                  3 1 4 1 2.</_></rects>
              <tilted>0</tilted></feature>
            <threshold>3.7129770498722792e-003</threshold>
            <left_val>-0.0503616817295551</left_val>
            <right_val>0.3843550086021423</right_val></_></_>
        <_>
          <_>
            <feature>
              <rects>
                <_>
                  19 16 3 1 -1.</_>
                <_>
                  20 16 1 1 3.</_></rects>
              <tilted>0</tilted></feature>
            <threshold>2.8192799072712660e-003</threshold>
            <left_val>0.0228049196302891</left_val>
            <right_val>-0.2864584922790527</right_val></_></_>
        <_>
          <_>
            <feature>
              <rects>
                <_>
                  2 16 3 1 -1.</_>
                <_>
                  3 16 1 1 3.</_></rects>
              <tilted>0</tilted></feature>
            <threshold>-3.3269820269197226e-003</threshold>
            <left_val>-0.5904604196548462</left_val>
            <right_val>0.0294260904192925</right_val></_></_>
        <_>
          <_>
            <feature>
              <rects>
                <_>
                  14 7 3 17 -1.</_>
                <_>
                  15 7 1 17 3.</_></rects>
              <tilted>0</tilted></feature>
            <threshold>0.0199275892227888</threshold>
            <left_val>6.6110962070524693e-003</left_val>
            <right_val>-0.2740156948566437</right_val></_></_>
        <_>
          <_>
            <feature>
              <rects>
                <_>
                  7 7 3 17 -1.</_>
                <_>
                  8 7 1 17 3.</_></rects>
              <tilted>0</tilted></feature>
            <threshold>0.0270065795630217</threshold>
            <left_val>0.0260685607790947</left_val>
            <right_val>-0.7580744028091431</right_val></_></_>
        <_>
          <_>
            <feature>
              <rects>
                <_>
                  15 5 4 2 -1.</_>
                <_>
                  15 6 4 1 2.</_></rects>
              <tilted>0</tilted></feature>
            <threshold>0.0101405903697014</threshold>
            <left_val>9.5315603539347649e-003</left_val>
            <right_val>-0.7447788119316101</right_val></_></_>
        <_>
          <_>
            <feature>
              <rects>
                <_>
                  5 5 4 2 -1.</_>
                <_>
                  5 6 4 1 2.</_></rects>
              <tilted>0</tilted></feature>
            <threshold>9.7917264793068171e-004</threshold>
            <left_val>-0.0910884067416191</left_val>
            <right_val>0.1921595036983490</right_val></_></_>
        <_>
          <_>
            <feature>
              <rects>
                <_>
                  22 2 1 20 -1.</_>
                <_>
                  22 7 1 10 2.</_></rects>
              <tilted>0</tilted></feature>
            <threshold>0.0158627498894930</threshold>
            <left_val>0.0248599909245968</left_val>
            <right_val>-0.1569682955741882</right_val></_></_>
        <_>
          <_>
            <feature>
              <rects>
                <_>
                  9 3 15 6 -1.</_>
                <_>
                  9 3 15 3 2.</_></rects>
              <tilted>1</tilted></feature>
            <threshold>0.0795156732201576</threshold>
            <left_val>-0.0589037090539932</left_val>
            <right_val>0.3289467990398407</right_val></_></_>
        <_>
          <_>
            <feature>
              <rects>
                <_>
                  16 9 2 9 -1.</_>
                <_>
                  16 9 1 9 2.</_></rects>
              <tilted>1</tilted></feature>
            <threshold>0.0353372618556023</threshold>
            <left_val>0.0104636503383517</left_val>
            <right_val>-0.8101348876953125</right_val></_></_>
        <_>
          <_>
            <feature>
              <rects>
                <_>
                  1 16 6 8 -1.</_>
                <_>
                  1 16 3 4 2.</_>
                <_>
                  4 20 3 4 2.</_></rects>
              <tilted>0</tilted></feature>
            <threshold>-0.0189918093383312</threshold>
            <left_val>0.3557187020778656</left_val>
            <right_val>-0.0556484982371330</right_val></_></_>
        <_>
          <_>
            <feature>
              <rects>
                <_>
                  16 9 2 9 -1.</_>
                <_>
                  16 9 1 9 2.</_></rects>
              <tilted>1</tilted></feature>
            <threshold>-9.0696867555379868e-003</threshold>
            <left_val>0.1286665052175522</left_val>
            <right_val>-0.0163644794374704</right_val></_></_>
        <_>
          <_>
            <feature>
              <rects>
                <_>
                  3 19 1 2 -1.</_>
                <_>
                  3 20 1 1 2.</_></rects>
              <tilted>0</tilted></feature>
            <threshold>-2.6024091057479382e-003</threshold>
            <left_val>-0.7001450061798096</left_val>
            <right_val>0.0234987493604422</right_val></_></_>
        <_>
          <_>
            <feature>
              <rects>
                <_>
                  12 20 12 4 -1.</_>
                <_>
                  16 20 4 4 3.</_></rects>
              <tilted>0</tilted></feature>
            <threshold>-7.0273550227284431e-003</threshold>
            <left_val>0.1091116964817047</left_val>
            <right_val>-0.0816050171852112</right_val></_></_>
        <_>
          <_>
            <feature>
              <rects>
                <_>
                  0 20 12 4 -1.</_>
                <_>
                  4 20 4 4 3.</_></rects>
              <tilted>0</tilted></feature>
            <threshold>0.0119540700688958</threshold>
            <left_val>-0.0879585593938828</left_val>
            <right_val>0.2056628018617630</right_val></_></_>
        <_>
          <_>
            <feature>
              <rects>
                <_>
                  21 21 3 3 -1.</_>
                <_>
                  22 21 1 3 3.</_></rects>
              <tilted>0</tilted></feature>
            <threshold>3.7694349884986877e-003</threshold>
            <left_val>0.0234792493283749</left_val>
            <right_val>-0.2408113032579422</right_val></_></_>
        <_>
          <_>
            <feature>
              <rects>
                <_>
                  6 17 4 5 -1.</_>
                <_>
                  8 17 2 5 2.</_></rects>
              <tilted>0</tilted></feature>
            <threshold>4.3998379260301590e-003</threshold>
            <left_val>-0.0832800269126892</left_val>
            <right_val>0.2211678028106690</right_val></_></_>
        <_>
          <_>
            <feature>
              <rects>
                <_>
                  5 17 16 3 -1.</_>
                <_>
                  9 17 8 3 2.</_></rects>
              <tilted>0</tilted></feature>
            <threshold>0.0619510002434254</threshold>
            <left_val>0.0103720296174288</left_val>
            <right_val>-0.4713695943355560</right_val></_></_>
        <_>
          <_>
            <feature>
              <rects>
                <_>
                  7 11 9 4 -1.</_>
                <_>
                  6 12 9 2 2.</_></rects>
              <tilted>1</tilted></feature>
            <threshold>-0.0150093603879213</threshold>
            <left_val>0.3170543909072876</left_val>
            <right_val>-0.0568951815366745</right_val></_></_>
        <_>
          <_>
            <feature>
              <rects>
                <_>
                  12 13 8 1 -1.</_>
                <_>
                  12 13 4 1 2.</_></rects>
              <tilted>0</tilted></feature>
            <threshold>-0.0106673398986459</threshold>
            <left_val>0.2522738873958588</left_val>
            <right_val>-0.0166267305612564</right_val></_></_>
        <_>
          <_>
            <feature>
              <rects>
                <_>
                  0 5 4 6 -1.</_>
                <_>
                  0 5 2 3 2.</_>
                <_>
                  2 8 2 3 2.</_></rects>
              <tilted>0</tilted></feature>
            <threshold>3.2921950332820415e-003</threshold>
            <left_val>-0.0840735211968422</left_val>
            <right_val>0.2093618959188461</right_val></_></_>
        <_>
          <_>
            <feature>
              <rects>
                <_>
                  12 6 10 3 -1.</_>
                <_>
                  12 7 10 1 3.</_></rects>
              <tilted>0</tilted></feature>
            <threshold>0.0358880907297134</threshold>
            <left_val>3.5230580251663923e-003</left_val>
            <right_val>-1.0000150203704834</right_val></_></_>
        <_>
          <_>
            <feature>
              <rects>
                <_>
                  2 6 10 3 -1.</_>
                <_>
                  2 7 10 1 3.</_></rects>
              <tilted>0</tilted></feature>
            <threshold>-7.6090921647846699e-003</threshold>
            <left_val>-0.3549185991287231</left_val>
            <right_val>0.0522472187876701</right_val></_></_>
        <_>
          <_>
            <feature>
              <rects>
                <_>
                  21 21 3 3 -1.</_>
                <_>
                  22 21 1 3 3.</_></rects>
              <tilted>0</tilted></feature>
            <threshold>-5.7901758700609207e-003</threshold>
            <left_val>-0.3174112141132355</left_val>
            <right_val>0.0181614104658365</right_val></_></_>
        <_>
          <_>
            <feature>
              <rects>
                <_>
                  0 21 3 3 -1.</_>
                <_>
                  1 21 1 3 3.</_></rects>
              <tilted>0</tilted></feature>
            <threshold>-2.2750480566173792e-003</threshold>
            <left_val>-0.2979437112808228</left_val>
            <right_val>0.0601604916155338</right_val></_></_>
        <_>
          <_>
            <feature>
              <rects>
                <_>
                  12 2 6 10 -1.</_>
                <_>
                  14 4 2 10 3.</_></rects>
              <tilted>1</tilted></feature>
            <threshold>0.0744321793317795</threshold>
            <left_val>-0.0149513604119420</left_val>
            <right_val>0.3359696865081787</right_val></_></_>
        <_>
          <_>
            <feature>
              <rects>
                <_>
                  11 0 11 6 -1.</_>
                <_>
                  9 2 11 2 3.</_></rects>
              <tilted>1</tilted></feature>
            <threshold>-0.0273807290941477</threshold>
            <left_val>0.2326927036046982</left_val>
            <right_val>-0.0801019519567490</right_val></_></_>
        <_>
          <_>
            <feature>
              <rects>
                <_>
                  23 3 1 3 -1.</_>
                <_>
                  23 4 1 1 3.</_></rects>
              <tilted>0</tilted></feature>
            <threshold>-7.2988332249224186e-004</threshold>
            <left_val>-0.2271901965141296</left_val>
            <right_val>0.0626668334007263</right_val></_></_>
        <_>
          <_>
            <feature>
              <rects>
                <_>
                  12 2 9 4 -1.</_>
                <_>
                  11 3 9 2 2.</_></rects>
              <tilted>1</tilted></feature>
            <threshold>0.0134618896991014</threshold>
            <left_val>-0.0631372928619385</left_val>
            <right_val>0.3032478988170624</right_val></_></_>
        <_>
          <_>
            <feature>
              <rects>
                <_>
                  13 5 2 2 -1.</_>
                <_>
                  13 5 1 2 2.</_></rects>
              <tilted>0</tilted></feature>
            <threshold>1.2006829492747784e-003</threshold>
            <left_val>-0.0412338897585869</left_val>
            <right_val>0.2046509981155396</right_val></_></_>
        <_>
          <_>
            <feature>
              <rects>
                <_>
                  1 6 14 2 -1.</_>
                <_>
                  1 6 7 1 2.</_>
                <_>
                  8 7 7 1 2.</_></rects>
              <tilted>0</tilted></feature>
            <threshold>-5.6420960463583469e-003</threshold>
            <left_val>-0.3010278046131134</left_val>
            <right_val>0.0661761015653610</right_val></_></_>
        <_>
          <_>
            <feature>
              <rects>
                <_>
                  9 1 12 4 -1.</_>
                <_>
                  15 1 6 2 2.</_>
                <_>
                  9 3 6 2 2.</_></rects>
              <tilted>0</tilted></feature>
            <threshold>-0.0289853103458881</threshold>
            <left_val>0.2769125103950501</left_val>
            <right_val>-0.0137655697762966</right_val></_></_>
        <_>
          <_>
            <feature>
              <rects>
                <_>
                  4 13 8 1 -1.</_>
                <_>
                  8 13 4 1 2.</_></rects>
              <tilted>0</tilted></feature>
            <threshold>-1.9604968838393688e-003</threshold>
            <left_val>0.1951745003461838</left_val>
            <right_val>-0.0974545478820801</right_val></_></_>
        <_>
          <_>
            <feature>
              <rects>
                <_>
                  15 12 3 5 -1.</_>
                <_>
                  16 12 1 5 3.</_></rects>
              <tilted>0</tilted></feature>
            <threshold>0.0140351597219706</threshold>
            <left_val>0.0120449298992753</left_val>
            <right_val>-0.4434708058834076</right_val></_></_>
        <_>
          <_>
            <feature>
              <rects>
                <_>
                  10 11 3 3 -1.</_>
                <_>
                  10 12 3 1 3.</_></rects>
              <tilted>0</tilted></feature>
            <threshold>-4.0281079709529877e-003</threshold>
            <left_val>-0.3676936924457550</left_val>
            <right_val>0.0454982593655586</right_val></_></_>
        <_>
          <_>
            <feature>
              <rects>
                <_>
                  13 21 4 1 -1.</_>
                <_>
                  14 21 2 1 2.</_></rects>
              <tilted>0</tilted></feature>
            <threshold>2.2512009309139103e-004</threshold>
            <left_val>-0.0917915925383568</left_val>
            <right_val>0.1467708051204681</right_val></_></_>
        <_>
          <_>
            <feature>
              <rects>
                <_>
                  7 21 4 1 -1.</_>
                <_>
                  8 21 2 1 2.</_></rects>
              <tilted>0</tilted></feature>
            <threshold>2.1368369925767183e-003</threshold>
            <left_val>0.0466188900172710</left_val>
            <right_val>-0.3816323876380920</right_val></_></_>
        <_>
          <_>
            <feature>
              <rects>
                <_>
                  15 12 3 5 -1.</_>
                <_>
                  16 12 1 5 3.</_></rects>
              <tilted>0</tilted></feature>
            <threshold>5.2523477934300900e-003</threshold>
            <left_val>-0.0217059496790171</left_val>
            <right_val>0.1581711024045944</right_val></_></_>
        <_>
          <_>
            <feature>
              <rects>
                <_>
                  6 12 3 5 -1.</_>
                <_>
                  7 12 1 5 3.</_></rects>
              <tilted>0</tilted></feature>
            <threshold>7.6645910739898682e-003</threshold>
            <left_val>0.0405196100473404</left_val>
            <right_val>-0.4213255047798157</right_val></_></_>
        <_>
          <_>
            <feature>
              <rects>
                <_>
                  15 14 4 4 -1.</_>
                <_>
                  15 14 2 4 2.</_></rects>
              <tilted>0</tilted></feature>
            <threshold>7.8074811026453972e-003</threshold>
            <left_val>-0.0531019493937492</left_val>
            <right_val>0.2587758004665375</right_val></_></_>
        <_>
          <_>
            <feature>
              <rects>
                <_>
                  5 14 4 4 -1.</_>
                <_>
                  7 14 2 4 2.</_></rects>
              <tilted>0</tilted></feature>
            <threshold>4.9574999138712883e-003</threshold>
            <left_val>-0.0756870433688164</left_val>
            <right_val>0.2520515918731690</right_val></_></_>
        <_>
          <_>
            <feature>
              <rects>
                <_>
                  13 17 3 7 -1.</_>
                <_>
                  14 17 1 7 3.</_></rects>
              <tilted>0</tilted></feature>
            <threshold>5.6094089522957802e-003</threshold>
            <left_val>0.0320947617292404</left_val>
            <right_val>-0.1852522045373917</right_val></_></_>
        <_>
          <_>
            <feature>
              <rects>
                <_>
                  12 4 1 3 -1.</_>
                <_>
                  11 5 1 1 3.</_></rects>
              <tilted>1</tilted></feature>
            <threshold>8.2776509225368500e-003</threshold>
            <left_val>0.0240490697324276</left_val>
            <right_val>-0.6603274941444397</right_val></_></_>
        <_>
          <_>
            <feature>
              <rects>
                <_>
                  13 17 3 7 -1.</_>
                <_>
                  14 17 1 7 3.</_></rects>
              <tilted>0</tilted></feature>
            <threshold>-0.0262165106832981</threshold>
            <left_val>-1.</left_val>
            <right_val>2.4683331139385700e-003</right_val></_></_>
        <_>
          <_>
            <feature>
              <rects>
                <_>
                  9 0 6 6 -1.</_>
                <_>
                  11 0 2 6 3.</_></rects>
              <tilted>0</tilted></feature>
            <threshold>-8.5328891873359680e-003</threshold>
            <left_val>0.2350603044033051</left_val>
            <right_val>-0.0713563188910484</right_val></_></_>
        <_>
          <_>
            <feature>
              <rects>
                <_>
                  23 20 1 3 -1.</_>
                <_>
                  22 21 1 1 3.</_></rects>
              <tilted>1</tilted></feature>
            <threshold>3.2318509183824062e-003</threshold>
            <left_val>0.0309831891208887</left_val>
            <right_val>-0.1942282021045685</right_val></_></_>
        <_>
          <_>
            <feature>
              <rects>
                <_>
                  1 20 3 1 -1.</_>
                <_>
                  2 21 1 1 3.</_></rects>
              <tilted>1</tilted></feature>
            <threshold>4.1332198306918144e-003</threshold>
            <left_val>0.0408651307225227</left_val>
            <right_val>-0.4383190870285034</right_val></_></_>
        <_>
          <_>
            <feature>
              <rects>
                <_>
                  13 17 3 7 -1.</_>
                <_>
                  14 17 1 7 3.</_></rects>
              <tilted>0</tilted></feature>
            <threshold>8.5571251111105084e-004</threshold>
            <left_val>-0.0479931905865669</left_val>
            <right_val>0.0690847784280777</right_val></_></_>
        <_>
          <_>
            <feature>
              <rects>
                <_>
                  8 17 3 7 -1.</_>
                <_>
                  9 17 1 7 3.</_></rects>
              <tilted>0</tilted></feature>
            <threshold>-6.2556979246437550e-003</threshold>
            <left_val>-0.3479667901992798</left_val>
            <right_val>0.0518605299293995</right_val></_></_>
        <_>
          <_>
            <feature>
              <rects>
                <_>
                  14 23 2 1 -1.</_>
                <_>
                  14 23 1 1 2.</_></rects>
              <tilted>0</tilted></feature>
            <threshold>1.2229470303282142e-004</threshold>
            <left_val>-0.0671002194285393</left_val>
            <right_val>0.1021241024136543</right_val></_></_>
        <_>
          <_>
            <feature>
              <rects>
                <_>
                  0 12 4 10 -1.</_>
                <_>
                  0 12 2 5 2.</_>
                <_>
                  2 17 2 5 2.</_></rects>
              <tilted>0</tilted></feature>
            <threshold>7.9075265675783157e-003</threshold>
            <left_val>-0.0723998993635178</left_val>
            <right_val>0.2536754906177521</right_val></_></_>
        <_>
          <_>
            <feature>
              <rects>
                <_>
                  20 17 2 2 -1.</_>
                <_>
                  21 17 1 1 2.</_>
                <_>
                  20 18 1 1 2.</_></rects>
              <tilted>0</tilted></feature>
            <threshold>-1.8648149853106588e-004</threshold>
            <left_val>0.1019423976540566</left_val>
            <right_val>-0.0535602606832981</right_val></_></_>
        <_>
          <_>
            <feature>
              <rects>
                <_>
                  2 17 2 2 -1.</_>
                <_>
                  2 17 1 1 2.</_>
                <_>
                  3 18 1 1 2.</_></rects>
              <tilted>0</tilted></feature>
            <threshold>-2.0663760369643569e-004</threshold>
            <left_val>0.2096506953239441</left_val>
            <right_val>-0.0902242287993431</right_val></_></_>
        <_>
          <_>
            <feature>
              <rects>
                <_>
                  20 13 3 3 -1.</_>
                <_>
                  21 14 1 1 9.</_></rects>
              <tilted>0</tilted></feature>
            <threshold>0.0141770998016000</threshold>
