<?xml version="1.0"?>
<opencv_storage>
<humandetector type_id="opencv-haar-classifier">
  <size>
    24 24</size>
  <stages>
    <_>
      <trees>
        <_>
          <_>
            <feature>
              <rects>
                <_>
                  0 0 14 4 -1.</_>
                <_>
                  0 2 14 2 2.</_></rects>
              <tilted>0</tilted></feature>
            <threshold>-3.1652629841119051e-003</threshold>
            <left_val>1.</left_val>
            <right_val>-1.</right_val></_></_></trees>
      <stage_threshold>1.</stage_threshold>
      <parent>-1</parent>
      <next>-1</next></_>
    <_>
      <trees>
        <_>
          <_>
            <feature>
              <rects>
                <_>
                  0 2 24 5 -1.</_>
                <_>
                  12 2 12 5 2.</_></rects>
              <tilted>0</tilted></feature>
            <threshold>-0.1820798963308334</threshold>
            <left_val>1.</left_val>
            <right_val>-0.9090914726257324</right_val></_></_>
        <_>
          <_>
            <feature>
              <rects>
                <_>
                  3 3 20 13 -1.</_>
                <_>
                  3 3 10 13 2.</_></rects>
              <tilted>0</tilted></feature>
            <threshold>0.0738817527890205</threshold>
            <left_val>-1.</left_val>
            <right_val>0.4724580049514771</right_val></_></_></trees>
      <stage_threshold>-0.4366334974765778</stage_threshold>
      <parent>0</parent>
      <next>-1</next></_>
    <_>
      <trees>
        <_>
          <_>
            <feature>
              <rects>
                <_>
                  3 3 5 2 -1.</_>
                <_>
                  3 4 5 1 2.</_></rects>
              <tilted>0</tilted></feature>
            <threshold>-7.1260472759604454e-004</threshold>
            <left_val>0.9181287288665772</left_val>
            <right_val>-0.9515159726142883</right_val></_></_>
        <_>
          <_>
            <feature>
              <rects>
                <_>
                  18 3 2 1 -1.</_>
                <_>
                  18 3 1 1 2.</_></rects>
              <tilted>1</tilted></feature>
            <threshold>-1.9607800641097128e-004</threshold>
            <left_val>-1.</left_val>
            <right_val>0.0679475963115692</right_val></_></_>
        <_>
          <_>
            <feature>
              <rects>
                <_>
                  6 3 1 2 -1.</_>
                <_>
                  6 3 1 1 2.</_></rects>
              <tilted>1</tilted></feature>
            <threshold>2.9471199377439916e-004</threshold>
            <left_val>-0.9587426185607910</left_val>
            <right_val>0.9999992251396179</right_val></_></_></trees>
      <stage_threshold>0.0273336805403233</stage_threshold>
      <parent>1</parent>
      <next>-1</next></_>
    <_>
      <trees>
        <_>
          <_>
            <feature>
              <rects>
                <_>
                  0 0 15 14 -1.</_>
                <_>
                  0 7 15 7 2.</_></rects>
              <tilted>0</tilted></feature>
            <threshold>-0.2847712039947510</threshold>
            <left_val>0.9181287288665772</left_val>
            <right_val>-0.9515159726142883</right_val></_></_>
        <_>
          <_>
            <feature>
              <rects>
                <_>
                  6 0 12 10 -1.</_>
                <_>
                  6 5 12 5 2.</_></rects>
              <tilted>0</tilted></feature>
            <threshold>-0.1162858977913857</threshold>
            <left_val>0.8642467856407166</left_val>
            <right_val>-0.9579141139984131</right_val></_></_></trees>
      <stage_threshold>-0.0872692465782166</stage_threshold>
      <parent>2</parent>
      <next>-1</next></_>
    <_>
      <trees>
        <_>
          <_>
            <feature>
              <rects>
                <_>
                  0 5 24 2 -1.</_>
                <_>
                  12 5 12 2 2.</_></rects>
              <tilted>0</tilted></feature>
            <threshold>-0.0589367896318436</threshold>
            <left_val>0.9181287288665772</left_val>
            <right_val>-0.9515159726142883</right_val></_></_>
        <_>
          <_>
            <feature>
              <rects>
                <_>
                  8 4 14 5 -1.</_>
                <_>
                  8 4 7 5 2.</_></rects>
              <tilted>0</tilted></feature>
            <threshold>0.0673139020800591</threshold>
            <left_val>0.1383602023124695</left_val>
            <right_val>-0.5603991746902466</right_val></_></_>
        <_>
          <_>
            <feature>
              <rects>
                <_>
                  2 4 14 5 -1.</_>
                <_>
                  9 4 7 5 2.</_></rects>
              <tilted>0</tilted></feature>
            <threshold>-0.0624773092567921</threshold>
            <left_val>0.8346437215805054</left_val>
            <right_val>-0.8854916095733643</right_val></_></_></trees>
      <stage_threshold>-0.5277621150016785</stage_threshold>
      <parent>3</parent>
      <next>-1</next></_>
    <_>
      <trees>
        <_>
          <_>
            <feature>
              <rects>
                <_>
                  6 4 12 2 -1.</_>
                <_>
                  6 4 6 1 2.</_>
                <_>
                  12 5 6 1 2.</_></rects>
              <tilted>0</tilted></feature>
            <threshold>8.2559982547536492e-004</threshold>
            <left_val>-0.8865247964859009</left_val>
            <right_val>0.6410256028175354</right_val></_></_>
        <_>
          <_>
            <feature>
              <rects>
                <_>
                  1 8 22 2 -1.</_>
                <_>
                  12 8 11 1 2.</_>
                <_>
                  1 9 11 1 2.</_></rects>
              <tilted>0</tilted></feature>
            <threshold>-5.8456058613955975e-003</threshold>
            <left_val>0.7839335203170776</left_val>
            <right_val>-0.8573231101036072</right_val></_></_></trees>
      <stage_threshold>-0.2162975072860718</stage_threshold>
      <parent>4</parent>
      <next>-1</next></_>
    <_>
      <trees>
        <_>
          <_>
            <feature>
              <rects>
                <_>
                  12 9 8 1 -1.</_>
                <_>
                  12 9 4 1 2.</_></rects>
              <tilted>1</tilted></feature>
            <threshold>2.5101639330387115e-003</threshold>
            <left_val>-0.8554214835166931</left_val>
            <right_val>0.8352938294410706</right_val></_></_>
        <_>
          <_>
            <feature>
              <rects>
                <_>
                  23 17 1 4 -1.</_>
                <_>
                  23 17 1 2 2.</_></rects>
              <tilted>1</tilted></feature>
            <threshold>2.4266690015792847e-003</threshold>
            <left_val>0.1377211064100266</left_val>
            <right_val>-1.0000009536743164</right_val></_></_>
        <_>
          <_>
            <feature>
              <rects>
                <_>
                  2 16 4 2 -1.</_>
                <_>
                  2 16 2 2 2.</_></rects>
              <tilted>1</tilted></feature>
            <threshold>1.9196160137653351e-003</threshold>
            <left_val>-0.8090416193008423</left_val>
            <right_val>0.9123200178146362</right_val></_></_></trees>
      <stage_threshold>0.1639731973409653</stage_threshold>
      <parent>5</parent>
      <next>-1</next></_>
    <_>
      <trees>
        <_>
          <_>
            <feature>
              <rects>
                <_>
                  0 0 24 1 -1.</_>
                <_>
                  6 0 12 1 2.</_></rects>
              <tilted>0</tilted></feature>
            <threshold>0.0209005698561668</threshold>
            <left_val>-0.8666666746139526</left_val>
            <right_val>0.9999995827674866</right_val></_></_>
        <_>
          <_>
            <feature>
              <rects>
                <_>
                  9 6 12 2 -1.</_>
                <_>
                  9 7 12 1 2.</_></rects>
              <tilted>0</tilted></feature>
            <threshold>-1.9073409494012594e-003</threshold>
            <left_val>0.5200725793838501</left_val>
            <right_val>-0.0318404398858547</right_val></_></_>
        <_>
          <_>
            <feature>
              <rects>
                <_>
                  3 6 12 2 -1.</_>
                <_>
                  3 7 12 1 2.</_></rects>
              <tilted>0</tilted></feature>
            <threshold>-4.1288249194622040e-003</threshold>
            <left_val>0.8114954829216003</left_val>
            <right_val>-0.9555959105491638</right_val></_></_></trees>
      <stage_threshold>-0.0870116874575615</stage_threshold>
      <parent>6</parent>
      <next>-1</next></_>
    <_>
      <trees>
        <_>
          <_>
            <feature>
              <rects>
                <_>
                  2 16 20 6 -1.</_>
                <_>
                  2 16 10 3 2.</_>
                <_>
                  12 19 10 3 2.</_></rects>
              <tilted>0</tilted></feature>
            <threshold>0.0106649901717901</threshold>
            <left_val>-0.7499998807907105</left_val>
            <right_val>0.9999998807907105</right_val></_></_>
        <_>
          <_>
            <feature>
              <rects>
                <_>
                  8 2 9 6 -1.</_>
                <_>
                  8 4 9 2 3.</_></rects>
              <tilted>0</tilted></feature>
            <threshold>-3.4585029352456331e-003</threshold>
            <left_val>0.8159888982772827</left_val>
            <right_val>-0.8437132835388184</right_val></_></_></trees>
      <stage_threshold>0.0659889578819275</stage_threshold>
      <parent>7</parent>
      <next>-1</next></_>
    <_>
      <trees>
        <_>
          <_>
            <feature>
              <rects>
                <_>
                  4 0 16 4 -1.</_>
                <_>
                  8 0 8 4 2.</_></rects>
              <tilted>0</tilted></feature>
            <threshold>0.0257406998425722</threshold>
            <left_val>-0.7499998807907105</left_val>
            <right_val>0.9999998807907105</right_val></_></_>
        <_>
          <_>
            <feature>
              <rects>
                <_>
                  5 11 15 2 -1.</_>
                <_>
                  5 12 15 1 2.</_></rects>
              <tilted>0</tilted></feature>
            <threshold>-1.5417200047522783e-003</threshold>
            <left_val>0.9316744804382324</left_val>
            <right_val>-0.7981711030006409</right_val></_></_></trees>
      <stage_threshold>0.1816744953393936</stage_threshold>
      <parent>8</parent>
      <next>-1</next></_>
    <_>
      <trees>
        <_>
          <_>
            <feature>
              <rects>
                <_>
                  3 2 21 1 -1.</_>
                <_>
                  10 9 7 1 3.</_></rects>
              <tilted>1</tilted></feature>
            <threshold>-0.0401585400104523</threshold>
            <left_val>0.8352941274642944</left_val>
            <right_val>-0.8554223179817200</right_val></_></_>
        <_>
          <_>
            <feature>
              <rects>
                <_>
                  0 5 24 12 -1.</_>
                <_>
                  6 5 12 12 2.</_></rects>
              <tilted>0</tilted></feature>
            <threshold>-0.0781323537230492</threshold>
            <left_val>0.9327206015586853</left_val>
            <right_val>-0.8020501136779785</right_val></_></_></trees>
      <stage_threshold>0.0332439504563808</stage_threshold>
      <parent>9</parent>
      <next>-1</next></_>
    <_>
      <trees>
        <_>
          <_>
            <feature>
              <rects>
                <_>
                  3 10 4 4 -1.</_>
                <_>
                  5 10 2 4 2.</_></rects>
              <tilted>0</tilted></feature>
            <threshold>-4.2551020160317421e-003</threshold>
            <left_val>1.</left_val>
            <right_val>-0.7142860889434815</right_val></_></_>
        <_>
          <_>
            <feature>
              <rects>
                <_>
                  3 0 21 8 -1.</_>
                <_>
                  10 0 7 8 3.</_></rects>
              <tilted>0</tilted></feature>
            <threshold>0.0453849807381630</threshold>
            <left_val>-0.2816373109817505</left_val>
            <right_val>0.6736090183258057</right_val></_></_>
        <_>
          <_>
            <feature>
              <rects>
                <_>
                  4 0 8 1 -1.</_>
                <_>
                  8 0 4 1 2.</_></rects>
              <tilted>0</tilted></feature>
            <threshold>-1.1144649470224977e-003</threshold>
            <left_val>-1.</left_val>
            <right_val>0.6965783238410950</right_val></_></_></trees>
      <stage_threshold>-0.2993451058864594</stage_threshold>
      <parent>10</parent>
      <next>-1</next></_>
    <_>
      <trees>
        <_>
          <_>
            <feature>
              <rects>
                <_>
                  5 3 6 12 -1.</_>
                <_>
                  5 6 6 6 2.</_></rects>
              <tilted>0</tilted></feature>
            <threshold>-0.0204757396131754</threshold>
            <left_val>0.8352941274642944</left_val>
            <right_val>-0.8554223179817200</right_val></_></_>
        <_>
          <_>
            <feature>
              <rects>
                <_>
                  18 6 2 8 -1.</_>
                <_>
                  19 6 1 4 2.</_>
                <_>
                  18 10 1 4 2.</_></rects>
              <tilted>0</tilted></feature>
            <threshold>6.3119968399405479e-004</threshold>
            <left_val>-0.3649412989616394</left_val>
            <right_val>0.5336952209472656</right_val></_></_>
        <_>
          <_>
            <feature>
              <rects>
                <_>
                  1 0 15 1 -1.</_>
                <_>
                  6 0 5 1 3.</_></rects>
              <tilted>0</tilted></feature>
            <threshold>3.9310059510171413e-003</threshold>
            <left_val>0.8998627066612244</left_val>
            <right_val>-0.7901163101196289</right_val></_></_></trees>
      <stage_threshold>-1.1118429899215698</stage_threshold>
      <parent>11</parent>
      <next>-1</next></_>
    <_>
      <trees>
        <_>
          <_>
            <feature>
              <rects>
                <_>
                  9 0 6 1 -1.</_>
                <_>
                  12 0 3 1 2.</_></rects>
              <tilted>0</tilted></feature>
            <threshold>-3.2163551077246666e-004</threshold>
            <left_val>-0.8117647171020508</left_val>
            <right_val>0.8313251733779907</right_val></_></_>
        <_>
          <_>
            <feature>
              <rects>
                <_>
                  12 5 3 6 -1.</_>
                <_>
                  10 7 3 2 3.</_></rects>
              <tilted>1</tilted></feature>
            <threshold>4.1790888644754887e-003</threshold>
            <left_val>-0.3224389851093292</left_val>
            <right_val>0.5811604261398315</right_val></_></_></trees>
      <stage_threshold>-0.2306043058633804</stage_threshold>
      <parent>12</parent>
      <next>-1</next></_></stages></humandetector>
</opencv_storage>
